{"learner":{"attributes":{"scikit_learn":"{\"_estimator_type\": \"regressor\"}"},"feature_names":[],"feature_types":[],"gradient_booster":{"model":{"gbtree_model_param":{"num_parallel_tree":"1","num_trees":"100"},"iteration_indptr":[0,1,2,3,4,5,6,7,8,9,10,11,12,13,14,15,16,17,18,19,20,21,22,23,24,25,26,27,28,29,30,31,32,33,34,35,36,37,38,39,40,41,42,43,44,45,46,47,48,49,50,51,52,53,54,55,56,57,58,59,60,61,62,63,64,65,66,67,68,69,70,71,72,73,74,75,76,77,78,79,80,81,82,83,84,85,86,87,88,89,90,91,92,93,94,95,96,97,98,99,100],"tree_info":[0,0,0,0,0,0,0,0,0,0,0,0,0,0,0,0,0,0,0,0,0,0,0,0,0,0,0,0,0,0,0,0,0,0,0,0,0,0,0,0,0,0,0,0,0,0,0,0,0,0,0,0,0,0,0,0,0,0,0,0,0,0,0,0,0,0,0,0,0,0,0,0,0,0,0,0,0,0,0,0,0,0,0,0,0,0,0,0,0,0,0,0,0,0,0,0,0,0,0,0],"trees":[{"base_weights":[-6.180976E-7,1.62892E1,-8.154325E0,4.2030063E0,3.0168467E1,-1.3009251E1,5.5573683E0,-1.3615793E0,1.0027813E1,2.2670607E1,4.0253742E1,-8.704371E0,-1.7287657E1,1.4232303E1,-3.265024E0,-5.2800355E0,3.5410275E0,5.788765E0,1.715966E1,1.6303135E1,2.5762465E1,3.5400738E1,4.3119904E1,-1.1854918E1,-6.2428004E-1,-1.9403198E1,-1.1367212E1,8.224176E0,2.011324E1,-7.5478024E0,1.0387075E0,-9.32273E0,-2.8866367E0,-1.7200261E-1,5.9575367E0,2.5514145E0,8.547065E0,1.5293657E1,2.91553E1,1.3226741E1,2.0980152E1,2.1741861E1,2.9071064E1,2.9293367E1,3.7069397E1,3.7504257E1,4.432455E1,-1.4770871E1,-7.782841E0,-3.3235905E0,8.393957E0,-2.1050558E1,-1.6976059E1,-1.3375694E1,-5.611977E0,3.2426064E0,1.3881331E1,1.553919E1,2.4700323E1,-1.0517055E1,-4.407468E0,-1.6593971E0,3.4177537E0,-1.2048415E0,-7.296793E-1,-5.6090087E-1,-1.0704527E-1,-2.001642E-1,3.496341E-1,3.9993227E-1,9.518858E-1,5.1214367E-2,4.894955E-1,6.5185547E-1,1.086268E0,1.3062478E0,1.7663769E0,2.4963207E0,3.1399064E0,1.0778682E0,1.5195843E0,1.7047417E0,2.2368212E0,1.9650437E0,2.4294946E0,2.659474E0,3.1319773E0,2.6981716E0,3.0827065E0,3.556717E0,3.8740432E0,3.5404146E0,3.935887E0,4.1745143E0,4.5235367E0,-1.7192557E0,-1.2267187E0,-1.0719621E0,-5.8172244E-1,-6.9265515E-1,-3.335404E-2,5.649827E-1,1.1080214E0,-2.2831383E0,-1.9087809E0,-1.8986725E0,-1.5467243E0,-1.5464563E0,-1.1638778E0,-7.537306E-1,-3.9791343E-1,1.4057787E-3,5.9058785E-1,1.1335808E0,1.624575E0,1.305088E0,1.8691294E0,2.119046E0,2.695461E0,-1.3109373E0,-8.666336E-1,-5.9965706E-1,-2.524222E-1,-3.5637614E-1,4.7566157E-2,9.9501915E-2,5.3612083E-1],"categories":[],"categories_nodes":[],"categories_segments":[],"categories_sizes":[],"default_left":[0,0,0,0,0,0,0,0,0,0,0,0,0,0,0,0,0,0,0,0,0,0,0,0,0,0,0,0,0,0,0,0,0,0,0,0,0,0,0,0,0,0,0,0,0,0,0,0,0,0,0,0,0,0,0,0,0,0,0,0,0,0,0,0,0,0,0,0,0,0,0,0,0,0,0,0,0,0,0,0,0,0,0,0,0,0,0,0,0,0,0,0,0,0,0,0,0,0,0,0,0,0,0,0,0,0,0,0,0,0,0,0,0,0,0,0,0,0,0,0,0,0,0,0,0,0,0],"id":0,"left_children":[1,3,5,7,9,11,13,15,17,19,21,23,25,27,29,31,33,35,37,39,41,43,45,47,49,51,53,55,57,59,61,63,65,67,69,71,73,75,77,79,81,83,85,87,89,91,93,95,97,99,101,103,105,107,109,111,113,115,117,119,121,123,125,-1,-1,-1,-1,-1,-1,-1,-1,-1,-1,-1,-1,-1,-1,-1,-1,-1,-1,-1,-1,-1,-1,-1,-1,-1,-1,-1,-1,-1,-1,-1,-1,-1,-1,-1,-1,-1,-1,-1,-1,-1,-1,-1,-1,-1,-1,-1,-1,-1,-1,-1,-1,-1,-1,-1,-1,-1,-1,-1,-1,-1,-1,-1,-1],"loss_changes":[3.0718468E7,1.2941592E7,1.0259459E7,1.3367108E6,2.714606E6,2.096134E6,3.0843535E6,4.0520978E5,6.090501E5,4.05139E5,2.11456E5,1.4442785E6,7.1474E5,7.1780975E5,3.6829622E5,1.1340225E5,8.407402E4,1.1283922E5,1.676795E5,9.6642375E4,1.83808E5,5.69115E4,6.343E4,4.845695E5,3.8749578E5,1.67791E5,1.73661E5,2.8326375E5,2.1505475E5,9.3338E4,6.3983004E4,2.3982781E4,3.6408973E4,2.4806898E4,3.954539E4,2.7792812E4,3.1983219E4,3.415275E4,8.7163125E3,1.943625E4,1.4199375E4,3.29645E4,4.15045E4,3.514875E3,9.833E3,5.25125E3,1.6711E4,1.440005E5,9.827356E4,1.3197814E5,2.6968453E4,8.7111E4,5.1304E4,4.024175E4,1.2199234E4,4.597611E4,2.8145812E4,4.0102625E4,3.9979E4,2.4579875E4,1.4556172E4,1.8993652E4,2.493545E4,0E0,0E0,0E0,0E0,0E0,0E0,0E0,0E0,0E0,0E0,0E0,0E0,0E0,0E0,0E0,0E0,0E0,0E0,0E0,0E0,0E0,0E0,0E0,0E0,0E0,0E0,0E0,0E0,0E0,0E0,0E0,0E0,0E0,0E0,0E0,0E0,0E0,0E0,0E0,0E0,0E0,0E0,0E0,0E0,0E0,0E0,0E0,0E0,0E0,0E0,0E0,0E0,0E0,0E0,0E0,0E0,0E0,0E0,0E0,0E0,0E0,0E0,0E0,0E0],"parents":[2147483647,0,0,1,1,2,2,3,3,4,4,5,5,6,6,7,7,8,8,9,9,10,10,11,11,12,12,13,13,14,14,15,15,16,16,17,17,18,18,19,19,20,20,21,21,22,22,23,23,24,24,25,25,26,26,27,27,28,28,29,29,30,30,31,31,32,32,33,33,34,34,35,35,36,36,37,37,38,38,39,39,40,40,41,41,42,42,43,43,44,44,45,45,46,46,47,47,48,48,49,49,50,50,51,51,52,52,53,53,54,54,55,55,56,56,57,57,58,58,59,59,60,60,61,61,62,62],"right_children":[2,4,6,8,10,12,14,16,18,20,22,24,26,28,30,32,34,36,38,40,42,44,46,48,50,52,54,56,58,60,62,64,66,68,70,72,74,76,78,80,82,84,86,88,90,92,94,96,98,100,102,104,106,108,110,112,114,116,118,120,122,124,126,-1,-1,-1,-1,-1,-1,-1,-1,-1,-1,-1,-1,-1,-1,-1,-1,-1,-1,-1,-1,-1,-1,-1,-1,-1,-1,-1,-1,-1,-1,-1,-1,-1,-1,-1,-1,-1,-1,-1,-1,-1,-1,-1,-1,-1,-1,-1,-1,-1,-1,-1,-1,-1,-1,-1,-1,-1,-1,-1,-1,-1,-1,-1,-1],"split_conditions":[1E0,9.1E-1,1.2E0,6.4E-1,2.49E1,2E0,2E0,1.58E1,1.87E1,1.67E1,3.03E1,2.02E1,2.09E1,2.59E1,2.62E1,4.5E-1,4.8E-1,1.37E1,2.67E1,1.13E0,1.15E0,1.15E0,1.15E0,7.2E-1,2.71E1,7.4E-1,2.74E1,1.67E0,1.76E0,1.68E0,1.73E0,1.16E1,1.18E1,1.97E1,2.03E1,7.6E-1,7.7E-1,7.8E-1,3.18E1,1.33E1,1.33E1,2.08E1,2.06E1,1.01E0,2.77E1,1.03E0,3.3E1,1.41E1,1.41E1,7.8E-1,3.33E1,1.47E1,1.47E1,7.9E-1,3.33E1,1.91E1,1.99E0,3.36E1,3.15E1,1.82E1,2.04E1,3.36E1,3.21E1,-1.2048415E0,-7.296793E-1,-5.6090087E-1,-1.0704527E-1,-2.001642E-1,3.496341E-1,3.9993227E-1,9.518858E-1,5.1214367E-2,4.894955E-1,6.5185547E-1,1.086268E0,1.3062478E0,1.7663769E0,2.4963207E0,3.1399064E0,1.0778682E0,1.5195843E0,1.7047417E0,2.2368212E0,1.9650437E0,2.4294946E0,2.659474E0,3.1319773E0,2.6981716E0,3.0827065E0,3.556717E0,3.8740432E0,3.5404146E0,3.935887E0,4.1745143E0,4.5235367E0,-1.7192557E0,-1.2267187E0,-1.0719621E0,-5.8172244E-1,-6.9265515E-1,-3.335404E-2,5.649827E-1,1.1080214E0,-2.2831383E0,-1.9087809E0,-1.8986725E0,-1.5467243E0,-1.5464563E0,-1.1638778E0,-7.537306E-1,-3.9791343E-1,1.4057787E-3,5.9058785E-1,1.1335808E0,1.624575E0,1.305088E0,1.8691294E0,2.119046E0,2.695461E0,-1.3109373E0,-8.666336E-1,-5.9965706E-1,-2.524222E-1,-3.5637614E-1,4.7566157E-2,9.9501915E-2,5.3612083E-1],"split_indices":[1,5,5,5,6,1,1,6,6,6,6,6,6,6,6,5,5,6,6,5,5,5,5,5,6,5,6,5,5,5,5,6,6,6,6,5,5,5,6,6,6,6,6,5,6,5,6,6,6,5,6,6,6,5,6,6,5,6,6,6,6,6,6,0,0,0,0,0,0,0,0,0,0,0,0,0,0,0,0,0,0,0,0,0,0,0,0,0,0,0,0,0,0,0,0,0,0,0,0,0,0,0,0,0,0,0,0,0,0,0,0,0,0,0,0,0,0,0,0,0,0,0,0,0,0,0,0],"split_type":[0,0,0,0,0,0,0,0,0,0,0,0,0,0,0,0,0,0,0,0,0,0,0,0,0,0,0,0,0,0,0,0,0,0,0,0,0,0,0,0,0,0,0,0,0,0,0,0,0,0,0,0,0,0,0,0,0,0,0,0,0,0,0,0,0,0,0,0,0,0,0,0,0,0,0,0,0,0,0,0,0,0,0,0,0,0,0,0,0,0,0,0,0,0,0,0,0,0,0,0,0,0,0,0,0,0,0,0,0,0,0,0,0,0,0,0,0,0,0,0,0,0,0,0,0,0,0],"sum_hessian":[2.31264E5,7.7149E4,1.54115E5,4.1239E4,3.591E4,1.13816E5,4.0299E4,2.1091E4,2.0148E4,2.0599E4,1.5311E4,5.6734E4,5.7082E4,2.0319E4,1.998E4,1.1722E4,9.369E3,1.2638E4,7.51E3,6.735E3,1.3864E4,5.69E3,9.621E3,4.0818E4,1.5916E4,4.2053E4,1.5029E4,1.0052E4,1.0267E4,1.0014E4,9.966E3,4.358E3,7.364E3,3.694E3,5.675E3,5.815E3,6.823E3,6.501E3,1.009E3,4.065E3,2.67E3,6.262E3,7.602E3,1.225E3,4.465E3,1.705E3,7.916E3,2.3784E4,1.7034E4,1.225E4,3.666E3,2.5046E4,1.7007E4,1.114E4,3.889E3,5.346E3,4.706E3,5.143E3,5.124E3,5.146E3,4.868E3,4.67E3,5.296E3,1.856E3,2.502E3,2.946E3,4.418E3,2.465E3,1.229E3,3.663E3,2.012E3,3.11E3,2.705E3,3.639E3,3.184E3,3.352E3,3.149E3,3.56E2,6.53E2,1.815E3,2.25E3,7E2,1.97E3,3.447E3,2.815E3,3.624E3,3.978E3,4.96E2,7.29E2,2.363E3,2.102E3,8.09E2,8.96E2,2.078E3,5.838E3,1.2087E4,1.1697E4,6.828E3,1.0206E4,5.555E3,6.695E3,1.815E3,1.851E3,1.3126E4,1.192E4,7.286E3,9.721E3,5.054E3,6.086E3,1.783E3,2.106E3,2.417E3,2.929E3,2.269E3,2.437E3,2.877E3,2.266E3,2.008E3,3.116E3,2.141E3,3.005E3,2.639E3,2.229E3,2.468E3,2.202E3,2.358E3,2.938E3],"tree_param":{"num_deleted":"0","num_feature":"12","num_nodes":"127","size_leaf_vector":"1"}},{"base_weights":[2.1357881E-4,1.4661006E1,-7.3389344E0,4.131745E0,2.7583687E1,-1.1561633E1,5.4495554E0,-6.6793E-1,1.0096432E1,2.0858847E1,3.6444645E1,-7.6533065E0,-1.5447628E1,1.3371904E1,-2.6067278E0,-3.990599E0,4.139794E0,6.578977E0,1.7589762E1,1.619985E1,2.4218618E1,3.2415344E1,3.9139526E1,-1.0285467E1,5.111586E-1,-1.7634882E1,-1.0596046E1,8.521331E0,1.8857668E1,-6.527055E0,1.0057327E0,-7.376531E0,-1.3583146E0,6.326423E-1,6.4695005E0,3.5652056E0,9.49115E0,1.5503098E1,2.7296785E1,1.328164E1,2.0192242E1,2.0372208E1,2.670848E1,2.7240267E1,3.380472E1,3.4690453E1,4.0184795E1,-1.2622623E1,-5.7402678E0,-2.1968977E0,8.039941E0,-1.8936554E1,-1.51042E1,-1.2332838E1,-5.0712414E0,4.183574E0,1.3226562E1,1.4998634E1,2.3050552E1,-8.8350115E0,-3.572091E0,-1.0824866E0,3.3938642E0,-9.8057395E-1,-5.254119E-1,-3.7425977E-1,4.849323E-2,-7.399971E-2,4.6338987E-1,4.8625693E-1,9.8338014E-1,1.9460642E-1,5.9362113E-1,7.829884E-1,1.1509523E0,1.376973E0,1.7757161E0,2.4348214E0,2.8859198E0,1.1030878E0,1.5412098E0,1.6879858E0,2.1463575E0,1.8773216E0,2.2542486E0,2.4906387E0,2.8651206E0,2.572777E0,2.9405127E0,3.2477593E0,3.5538082E0,3.2983265E0,3.6490319E0,3.8231277E0,4.0927606E0,-1.4868639E0,-1.0128447E0,-8.083367E-1,-3.6562857E-1,-5.28482E-1,6.929589E-2,5.8250594E-1,1.0393938E0,-2.0767286E0,-1.7505814E0,-1.6877291E0,-1.394664E0,-1.4139733E0,-1.0545862E0,-6.584316E-1,-3.213339E-1,1.5793422E-1,6.9536155E-1,1.0762048E0,1.5156112E0,1.2487105E0,1.7171144E0,2.084989E0,2.53474E0,-1.1740643E0,-7.637078E-1,-5.001108E-1,-2.0450191E-1,-2.6509154E-1,1.12139575E-1,1.5488905E-1,5.596723E-1],"categories":[],"categories_nodes":[],"categories_segments":[],"categories_sizes":[],"default_left":[0,0,0,0,0,0,0,0,0,0,0,0,0,0,0,0,0,0,0,0,0,0,0,0,0,0,0,0,0,0,0,0,0,0,0,0,0,0,0,0,0,0,0,0,0,0,0,0,0,0,0,0,0,0,0,0,0,0,0,0,0,0,0,0,0,0,0,0,0,0,0,0,0,0,0,0,0,0,0,0,0,0,0,0,0,0,0,0,0,0,0,0,0,0,0,0,0,0,0,0,0,0,0,0,0,0,0,0,0,0,0,0,0,0,0,0,0,0,0,0,0,0,0,0,0,0,0],"id":1,"left_children":[1,3,5,7,9,11,13,15,17,19,21,23,25,27,29,31,33,35,37,39,41,43,45,47,49,51,53,55,57,59,61,63,65,67,69,71,73,75,77,79,81,83,85,87,89,91,93,95,97,99,101,103,105,107,109,111,113,115,117,119,121,123,125,-1,-1,-1,-1,-1,-1,-1,-1,-1,-1,-1,-1,-1,-1,-1,-1,-1,-1,-1,-1,-1,-1,-1,-1,-1,-1,-1,-1,-1,-1,-1,-1,-1,-1,-1,-1,-1,-1,-1,-1,-1,-1,-1,-1,-1,-1,-1,-1,-1,-1,-1,-1,-1,-1,-1,-1,-1,-1,-1,-1,-1,-1,-1,-1],"loss_changes":[2.4883696E7,1.0497398E7,8.3226265E6,1.2170926E6,2.063268E6,1.759533E6,2.441776E6,3.763432E5,4.99516E5,3.07896E5,1.61E5,1.2414072E6,6.16296E5,5.1310225E5,2.6864606E5,1.241533E5,7.86628E4,1.1320219E5,1.2222275E5,9.590775E4,1.090275E5,4.2184E4,4.0228E4,4.63965E5,2.8716744E5,1.31614E5,1.7318325E5,2.0892412E5,1.46104E5,6.2009344E4,4.9239754E4,3.1362625E4,3.445283E4,2.1115764E4,3.1227047E4,2.4335344E4,2.190925E4,1.9236375E4,4.22675E3,2.27125E4,1.430925E4,1.5193E4,2.359E4,3.415E3,9.7085E3,4.05075E3,8.943E3,1.614545E5,7.241425E4,9.244379E4,1.9366172E4,6.8882E4,2.768825E4,4.4202625E4,1.2122992E4,3.8431516E4,2.3190688E4,2.5517625E4,2.138825E4,1.76865E4,8.698977E3,1.8212512E4,1.8711105E4,0E0,0E0,0E0,0E0,0E0,0E0,0E0,0E0,0E0,0E0,0E0,0E0,0E0,0E0,0E0,0E0,0E0,0E0,0E0,0E0,0E0,0E0,0E0,0E0,0E0,0E0,0E0,0E0,0E0,0E0,0E0,0E0,0E0,0E0,0E0,0E0,0E0,0E0,0E0,0E0,0E0,0E0,0E0,0E0,0E0,0E0,0E0,0E0,0E0,0E0,0E0,0E0,0E0,0E0,0E0,0E0,0E0,0E0,0E0,0E0,0E0,0E0,0E0,0E0],"parents":[2147483647,0,0,1,1,2,2,3,3,4,4,5,5,6,6,7,7,8,8,9,9,10,10,11,11,12,12,13,13,14,14,15,15,16,16,17,17,18,18,19,19,20,20,21,21,22,22,23,23,24,24,25,25,26,26,27,27,28,28,29,29,30,30,31,31,32,32,33,33,34,34,35,35,36,36,37,37,38,38,39,39,40,40,41,41,42,42,43,43,44,44,45,45,46,46,47,47,48,48,49,49,50,50,51,51,52,52,53,53,54,54,55,55,56,56,57,57,58,58,59,59,60,60,61,61,62,62],"right_children":[2,4,6,8,10,12,14,16,18,20,22,24,26,28,30,32,34,36,38,40,42,44,46,48,50,52,54,56,58,60,62,64,66,68,70,72,74,76,78,80,82,84,86,88,90,92,94,96,98,100,102,104,106,108,110,112,114,116,118,120,122,124,126,-1,-1,-1,-1,-1,-1,-1,-1,-1,-1,-1,-1,-1,-1,-1,-1,-1,-1,-1,-1,-1,-1,-1,-1,-1,-1,-1,-1,-1,-1,-1,-1,-1,-1,-1,-1,-1,-1,-1,-1,-1,-1,-1,-1,-1,-1,-1,-1,-1,-1,-1,-1,-1,-1,-1,-1,-1,-1,-1,-1,-1,-1,-1,-1],"split_conditions":[1E0,9.3E-1,1.23E0,6.7E-1,2.5E1,2E0,2E0,1.63E1,1.99E1,1.79E1,3.09E1,2.1E1,2.01E1,2.71E1,2.59E1,4.9E-1,5E-1,1.46E1,2.74E1,1.15E0,1.13E0,1.17E0,1.18E0,7.9E-1,2.77E1,7.9E-1,2.71E1,1.71E0,1.8E0,1.77E0,1.82E0,1.22E1,1.23E1,2.08E1,2.1E1,8E-1,8E-1,8.2E-1,3.27E1,1.44E1,1.44E1,2.17E1,2.15E1,2.74E1,2.83E1,1.07E0,3.36E1,1.47E1,1.54E1,8.3E-1,3.39E1,1.35E1,1.41E1,8.1E-1,3.42E1,2.06E1,2.02E1,3.3E1,3.36E1,1.69E1,2E1,3.42E1,3.33E1,-9.8057395E-1,-5.254119E-1,-3.7425977E-1,4.849323E-2,-7.399971E-2,4.6338987E-1,4.8625693E-1,9.8338014E-1,1.9460642E-1,5.9362113E-1,7.829884E-1,1.1509523E0,1.376973E0,1.7757161E0,2.4348214E0,2.8859198E0,1.1030878E0,1.5412098E0,1.6879858E0,2.1463575E0,1.8773216E0,2.2542486E0,2.4906387E0,2.8651206E0,2.572777E0,2.9405127E0,3.2477593E0,3.5538082E0,3.2983265E0,3.6490319E0,3.8231277E0,4.0927606E0,-1.4868639E0,-1.0128447E0,-8.083367E-1,-3.6562857E-1,-5.28482E-1,6.929589E-2,5.8250594E-1,1.0393938E0,-2.0767286E0,-1.7505814E0,-1.6877291E0,-1.394664E0,-1.4139733E0,-1.0545862E0,-6.584316E-1,-3.213339E-1,1.5793422E-1,6.9536155E-1,1.0762048E0,1.5156112E0,1.2487105E0,1.7171144E0,2.084989E0,2.53474E0,-1.1740643E0,-7.637078E-1,-5.001108E-1,-2.0450191E-1,-2.6509154E-1,1.12139575E-1,1.5488905E-1,5.596723E-1],"split_indices":[1,5,5,5,6,1,1,6,6,6,6,6,6,6,6,5,5,6,6,5,5,5,5,5,6,5,6,5,5,5,5,6,6,6,6,5,5,5,6,6,6,6,6,6,6,5,6,6,6,5,6,6,6,5,6,6,6,6,6,6,6,6,6,0,0,0,0,0,0,0,0,0,0,0,0,0,0,0,0,0,0,0,0,0,0,0,0,0,0,0,0,0,0,0,0,0,0,0,0,0,0,0,0,0,0,0,0,0,0,0,0,0,0,0,0,0,0,0,0,0,0,0,0,0,0,0,0],"split_type":[0,0,0,0,0,0,0,0,0,0,0,0,0,0,0,0,0,0,0,0,0,0,0,0,0,0,0,0,0,0,0,0,0,0,0,0,0,0,0,0,0,0,0,0,0,0,0,0,0,0,0,0,0,0,0,0,0,0,0,0,0,0,0,0,0,0,0,0,0,0,0,0,0,0,0,0,0,0,0,0,0,0,0,0,0,0,0,0,0,0,0,0,0,0,0,0,0,0,0,0,0,0,0,0,0,0,0,0,0,0,0,0,0,0,0,0,0,0,0,0,0,0,0,0,0,0,0],"sum_hessian":[2.31264E5,7.7149E4,1.54115E5,4.2512E4,3.4637E4,1.15859E5,3.8256E4,2.3557E4,1.8955E4,1.9694E4,1.4943E4,5.7765E4,5.8094E4,1.9288E4,1.8968E4,1.393E4,9.627E3,1.2901E4,6.054E3,8.254E3,1.144E4,5.994E3,8.949E3,4.3682E4,1.4083E4,4.004E4,1.8054E4,1.0238E4,9.05E3,9.096E3,9.872E3,6.092E3,7.838E3,3.843E3,5.784E3,6.341E3,6.56E3,4.985E3,1.069E3,4.771E3,3.483E3,4.499E3,6.941E3,1.273E3,4.721E3,1.709E3,7.24E3,2.8847E4,1.4835E4,1.0358E4,3.725E3,2.6436E4,1.3604E4,1.3735E4,4.319E3,5.328E3,4.91E3,4.715E3,4.335E3,5.106E3,3.99E3,5.267E3,4.605E3,2.839E3,3.253E3,3.417E3,4.421E3,2.862E3,9.81E2,3.916E3,1.868E3,3.769E3,2.572E3,3.601E3,2.959E3,2.822E3,2.163E3,3.76E2,6.93E2,2.323E3,2.448E3,9.7E2,2.513E3,2.596E3,1.903E3,3.608E3,3.333E3,7.57E2,5.16E2,2.685E3,2.036E3,8.87E2,8.22E2,2.009E3,5.231E3,1.5176E4,1.3671E4,6.982E3,7.853E3,5.007E3,5.351E3,1.921E3,1.804E3,1.1591E4,1.4845E4,5.368E3,8.236E3,6.826E3,6.909E3,2.379E3,1.94E3,2.747E3,2.581E3,2.159E3,2.751E3,2.19E3,2.525E3,2.219E3,2.116E3,1.488E3,3.618E3,2.06E3,1.93E3,3.077E3,2.19E3,2.507E3,2.098E3],"tree_param":{"num_deleted":"0","num_feature":"12","num_nodes":"127","size_leaf_vector":"1"}},{"base_weights":[4.102701E-4,1.319561E1,-6.6050663E0,3.8812788E0,2.5033897E1,-1.0868424E1,3.704144E0,-4.271774E-1,9.501057E0,1.9057629E1,3.2983185E1,-7.4615192E0,-1.42484255E1,1.0521459E1,-3.241533E0,-4.100454E0,3.1626368E0,5.996966E0,1.57974825E1,1.5219394E1,2.2386206E1,2.9537308E1,3.5379112E1,-1.0291872E1,-1.9436861E0,-1.6370913E1,-1.0625503E1,5.43045E0,1.5756753E1,-7.0343165E0,3.2613993E-1,-6.93661E0,-1.4427758E0,1.7474015E-1,5.5441546E0,2.3637521E0,7.8492713E0,1.3954731E1,2.4915298E1,1.2689427E1,1.8842505E1,1.928055E1,2.4687857E1,2.4544294E1,3.055812E1,3.1317114E1,3.625587E1,-1.3210514E1,-7.789949E0,-3.640233E0,6.330646E0,-1.8052774E1,-1.4907222E1,-1.1916637E1,-5.4384775E0,1.0723685E0,1.0456928E1,1.1615671E1,1.9539753E1,-9.681774E0,-4.2485623E0,-2.273959E0,2.2573676E0,-9.901005E-1,-5.471201E-1,-4.1560617E-1,-3.796546E-2,-1.5455961E-1,3.200817E-1,3.5913068E-1,8.3453065E-1,9.7655445E-2,4.502027E-1,6.491269E-1,9.837658E-1,1.2354426E0,1.6385803E0,2.264364E0,2.6435516E0,1.0471108E0,1.4623045E0,1.5950707E0,1.9964361E0,1.7355388E0,2.0773757E0,2.3390617E0,2.6632605E0,2.3202577E0,2.6655633E0,2.9343853E0,3.2215798E0,2.9627812E0,3.2646768E0,3.4718444E0,3.6863656E0,-1.5701412E0,-1.1754678E0,-1.0321354E0,-6.4477867E-1,-6.7668605E-1,-1.4391945E-1,3.8619685E-1,8.325309E-1,-1.9625409E0,-1.6951002E0,-1.6568888E0,-1.3934902E0,-1.3775258E0,-1.0658169E0,-7.302611E-1,-3.755469E-1,-2.001541E-1,3.040071E-1,7.8848785E-1,1.2878773E0,8.925692E-1,1.3823341E0,1.6387713E0,2.145156E0,-1.184897E0,-8.2539314E-1,-5.6151265E-1,-2.4316362E-1,-4.1552755E-1,-4.8374698E-2,1.0705941E-2,3.9549813E-1],"categories":[],"categories_nodes":[],"categories_segments":[],"categories_sizes":[],"default_left":[0,0,0,0,0,0,0,0,0,0,0,0,0,0,0,0,0,0,0,0,0,0,0,0,0,0,0,0,0,0,0,0,0,0,0,0,0,0,0,0,0,0,0,0,0,0,0,0,0,0,0,0,0,0,0,0,0,0,0,0,0,0,0,0,0,0,0,0,0,0,0,0,0,0,0,0,0,0,0,0,0,0,0,0,0,0,0,0,0,0,0,0,0,0,0,0,0,0,0,0,0,0,0,0,0,0,0,0,0,0,0,0,0,0,0,0,0,0,0,0,0,0,0,0,0,0,0],"id":2,"left_children":[1,3,5,7,9,11,13,15,17,19,21,23,25,27,29,31,33,35,37,39,41,43,45,47,49,51,53,55,57,59,61,63,65,67,69,71,73,75,77,79,81,83,85,87,89,91,93,95,97,99,101,103,105,107,109,111,113,115,117,119,121,123,125,-1,-1,-1,-1,-1,-1,-1,-1,-1,-1,-1,-1,-1,-1,-1,-1,-1,-1,-1,-1,-1,-1,-1,-1,-1,-1,-1,-1,-1,-1,-1,-1,-1,-1,-1,-1,-1,-1,-1,-1,-1,-1,-1,-1,-1,-1,-1,-1,-1,-1,-1,-1,-1,-1,-1,-1,-1,-1,-1,-1,-1,-1,-1,-1],"loss_changes":[2.015728E7,8.506904E6,6.773724E6,1.0454785E6,1.613282E6,1.255389E6,2.1350372E6,3.2231447E5,4.1332625E5,2.47447E5,1.19312E5,8.480055E5,4.2067E5,6.0640175E5,3.0222638E5,9.105164E4,8.796368E4,8.10085E4,1.12208125E5,8.2359E4,7.37575E4,2.97555E4,2.9471E4,2.6197375E5,2.5847283E5,8.4683E4,1.35358E5,2.5273794E5,1.75511E5,7.980244E4,5.7801242E4,2.5332438E4,1.7992256E4,2.855394E4,3.7599703E4,1.2059178E4,2.1467812E4,2.1486875E4,3.2865E3,2.2619188E4,1.169475E4,1.235975E4,1.44155E4,2.27375E3,9.0485E3,2.476E3,5.319E3,5.9882E4,6.5598E4,1.051377E5,1.5395305E4,2.74825E4,2.95895E4,3.7722E4,1.2622391E4,3.739211E4,3.3274E4,3.1695562E4,3.49675E4,1.7076156E4,1.3088844E4,1.6521182E4,2.4110418E4,0E0,0E0,0E0,0E0,0E0,0E0,0E0,0E0,0E0,0E0,0E0,0E0,0E0,0E0,0E0,0E0,0E0,0E0,0E0,0E0,0E0,0E0,0E0,0E0,0E0,0E0,0E0,0E0,0E0,0E0,0E0,0E0,0E0,0E0,0E0,0E0,0E0,0E0,0E0,0E0,0E0,0E0,0E0,0E0,0E0,0E0,0E0,0E0,0E0,0E0,0E0,0E0,0E0,0E0,0E0,0E0,0E0,0E0,0E0,0E0,0E0,0E0,0E0,0E0],"parents":[2147483647,0,0,1,1,2,2,3,3,4,4,5,5,6,6,7,7,8,8,9,9,10,10,11,11,12,12,13,13,14,14,15,15,16,16,17,17,18,18,19,19,20,20,21,21,22,22,23,23,24,24,25,25,26,26,27,27,28,28,29,29,30,30,31,31,32,32,33,33,34,34,35,35,36,36,37,37,38,38,39,39,40,40,41,41,42,42,43,43,44,44,45,45,46,46,47,47,48,48,49,49,50,50,51,51,52,52,53,53,54,54,55,55,56,56,57,57,58,58,59,59,60,60,61,61,62,62],"right_children":[2,4,6,8,10,12,14,16,18,20,22,24,26,28,30,32,34,36,38,40,42,44,46,48,50,52,54,56,58,60,62,64,66,68,70,72,74,76,78,80,82,84,86,88,90,92,94,96,98,100,102,104,106,108,110,112,114,116,118,120,122,124,126,-1,-1,-1,-1,-1,-1,-1,-1,-1,-1,-1,-1,-1,-1,-1,-1,-1,-1,-1,-1,-1,-1,-1,-1,-1,-1,-1,-1,-1,-1,-1,-1,-1,-1,-1,-1,-1,-1,-1,-1,-1,-1,-1,-1,-1,-1,-1,-1,-1,-1,-1,-1,-1,-1,-1,-1,-1,-1,-1,-1,-1,-1,-1,-1],"split_conditions":[1E0,9.4E-1,1.14E0,6.8E-1,2.52E1,2E0,2E0,1.51E1,1.94E1,1.85E1,3.12E1,1.9E1,1.88E1,2.55E1,2.5E1,5.1E-1,5.2E-1,1.29E1,2.77E1,1.17E0,1.17E0,1.14E0,1.17E0,6.3E-1,2.71E1,6.4E-1,2.62E1,1.55E0,1.69E0,1.55E0,1.63E0,3.7E-1,1.07E1,1.92E1,1.95E1,8.1E-1,8.2E-1,2.28E1,3.36E1,1.47E1,1.49E1,1.03E0,2.24E1,2.8E1,2.86E1,1.05E0,3.39E1,1.22E1,1.28E1,7.1E-1,3.27E1,1.27E1,1.3E1,6.9E-1,3.21E1,1.76E1,1.93E0,3.18E1,3.09E1,1.72E1,1.98E0,3.24E1,3.15E1,-9.901005E-1,-5.471201E-1,-4.1560617E-1,-3.796546E-2,-1.5455961E-1,3.200817E-1,3.5913068E-1,8.3453065E-1,9.7655445E-2,4.502027E-1,6.491269E-1,9.837658E-1,1.2354426E0,1.6385803E0,2.264364E0,2.6435516E0,1.0471108E0,1.4623045E0,1.5950707E0,1.9964361E0,1.7355388E0,2.0773757E0,2.3390617E0,2.6632605E0,2.3202577E0,2.6655633E0,2.9343853E0,3.2215798E0,2.9627812E0,3.2646768E0,3.4718444E0,3.6863656E0,-1.5701412E0,-1.1754678E0,-1.0321354E0,-6.4477867E-1,-6.7668605E-1,-1.4391945E-1,3.8619685E-1,8.325309E-1,-1.9625409E0,-1.6951002E0,-1.6568888E0,-1.3934902E0,-1.3775258E0,-1.0658169E0,-7.302611E-1,-3.755469E-1,-2.001541E-1,3.040071E-1,7.8848785E-1,1.2878773E0,8.925692E-1,1.3823341E0,1.6387713E0,2.145156E0,-1.184897E0,-8.2539314E-1,-5.6151265E-1,-2.4316362E-1,-4.1552755E-1,-4.8374698E-2,1.0705941E-2,3.9549813E-1],"split_indices":[1,5,5,5,6,1,1,6,6,6,6,6,6,6,6,5,5,6,6,5,5,5,5,5,6,5,6,5,5,5,5,5,6,6,6,5,5,6,6,6,6,5,6,6,6,5,6,6,6,5,6,6,6,5,6,6,5,6,6,6,5,6,6,0,0,0,0,0,0,0,0,0,0,0,0,0,0,0,0,0,0,0,0,0,0,0,0,0,0,0,0,0,0,0,0,0,0,0,0,0,0,0,0,0,0,0,0,0,0,0,0,0,0,0,0,0,0,0,0,0,0,0,0,0,0,0,0],"split_type":[0,0,0,0,0,0,0,0,0,0,0,0,0,0,0,0,0,0,0,0,0,0,0,0,0,0,0,0,0,0,0,0,0,0,0,0,0,0,0,0,0,0,0,0,0,0,0,0,0,0,0,0,0,0,0,0,0,0,0,0,0,0,0,0,0,0,0,0,0,0,0,0,0,0,0,0,0,0,0,0,0,0,0,0,0,0,0,0,0,0,0,0,0,0,0,0,0,0,0,0,0,0,0,0,0,0,0,0,0,0,0,0,0,0,0,0,0,0,0,0,0,0,0,0,0,0,0],"sum_hessian":[2.31264E5,7.7149E4,1.54115E5,4.3178E4,3.3971E4,1.09027E5,4.5088E4,2.4441E4,1.8737E4,1.9394E4,1.4577E4,5.4299E4,5.4728E4,2.2754E4,2.2334E4,1.208E4,1.2361E4,1.2039E4,6.698E3,9.01E3,1.0384E4,5.984E3,8.593E3,3.5889E4,1.841E4,3.4508E4,2.022E4,1.1537E4,1.1217E4,1.0825E4,1.1509E4,5.843E3,6.237E3,5.483E3,6.878E3,4.066E3,7.973E3,5.574E3,1.124E3,5.308E3,3.702E3,4.424E3,5.96E3,1.02E3,4.964E3,1.532E3,7.061E3,1.6563E4,1.9326E4,1.5278E4,3.132E3,1.6052E4,1.8456E4,1.6189E4,4.031E3,6.18E3,5.357E3,5.357E3,5.86E3,5.549E3,5.276E3,4.905E3,6.604E3,1.931E3,3.912E3,1.755E3,4.482E3,3.496E3,1.987E3,4.054E3,2.824E3,2.467E3,1.599E3,4.74E3,3.233E3,3.365E3,2.209E3,4.57E2,6.67E2,2.475E3,2.833E3,1.039E3,2.663E3,1.938E3,2.486E3,3.583E3,2.377E3,6.31E2,3.89E2,2.876E3,2.088E3,6.85E2,8.47E2,2.017E3,5.044E3,6.106E3,1.0457E4,6.694E3,1.2632E4,6.311E3,8.967E3,1.401E3,1.731E3,6.606E3,9.446E3,6.807E3,1.1649E4,6.532E3,9.657E3,1.911E3,2.12E3,2.412E3,3.768E3,2.6E3,2.757E3,2.417E3,2.94E3,2.216E3,3.644E3,2.201E3,3.348E3,3.01E3,2.266E3,2.391E3,2.514E3,2.914E3,3.69E3],"tree_param":{"num_deleted":"0","num_feature":"12","num_nodes":"127","size_leaf_vector":"1"}},{"base_weights":[5.415658E-4,1.1876681E1,-5.9446177E0,2.8949177E0,2.1842203E1,-9.838365E0,3.2047043E0,-3.899581E-1,8.149817E0,1.6082285E1,2.892749E1,-6.7845755E0,-1.2866599E1,9.301683E0,-3.010694E0,-4.2123556E0,2.7332385E0,3.8151207E0,1.17161455E1,1.24450445E1,1.9060217E1,2.4919636E1,3.1178173E1,-9.074005E0,-1.3133599E0,-1.4162708E1,-8.079285E0,3.966983E0,1.3503604E1,-6.5455046E0,1.3473698E-1,-6.4393973E0,-2.1700864E0,-9.0443835E-2,4.134023E0,-3.4681758E-1,5.0456305E0,1.0176706E1,1.8952215E1,8.860437E0,1.4843034E1,1.588863E1,2.117349E1,2.0339094E1,2.632359E1,2.6549423E1,3.1989262E1,-1.1553036E1,-6.659487E0,-2.9305694E0,5.7705946E0,-1.5614552E1,-1.252558E1,-9.428641E0,-4.1020966E0,3.0234984E-1,8.698861E0,1.0093E1,1.7773386E1,-8.958317E0,-4.025262E0,-2.455846E0,1.7964158E0,-9.6420664E-1,-5.1044506E-1,-5.3196716E-1,-9.0687215E-2,-1.4728115E-1,2.0033634E-1,2.4156764E-1,6.1291635E-1,-1.20591305E-1,3.54835E-1,4.0064842E-1,8.202556E-1,8.443451E-1,1.1592368E0,1.5958327E0,2.219491E0,6.2648517E-1,9.918524E-1,1.3105499E0,1.6415195E0,1.2325826E0,1.6906395E0,1.9632902E0,2.2299716E0,1.9047396E0,2.1791017E0,2.5083807E0,2.7518816E0,2.415544E0,2.7558715E0,2.9892638E0,3.2851262E0,-1.3630419E0,-1.0006644E0,-8.7700236E-1,-5.2236664E-1,-6.132264E-1,-1.2497117E-1,4.237786E-1,8.3889467E-1,-1.7221806E0,-1.443499E0,-1.4163014E0,-1.1528004E0,-1.112713E0,-8.4077376E-1,-5.140514E-1,-2.5905308E-1,-2.5249177E-1,1.8194315E-1,6.132718E-1,1.1085953E0,7.631441E-1,1.2239304E0,1.5595912E0,2.064383E0,-1.1288273E0,-7.9287964E-1,-5.4326576E-1,-2.5243756E-1,-4.405093E-1,-9.216754E-2,-1.864746E-2,3.3277592E-1],"categories":[],"categories_nodes":[],"categories_segments":[],"categories_sizes":[],"default_left":[0,0,0,0,0,0,0,0,0,0,0,0,0,0,0,0,0,0,0,0,0,0,0,0,0,0,0,0,0,0,0,0,0,0,0,0,0,0,0,0,0,0,0,0,0,0,0,0,0,0,0,0,0,0,0,0,0,0,0,0,0,0,0,0,0,0,0,0,0,0,0,0,0,0,0,0,0,0,0,0,0,0,0,0,0,0,0,0,0,0,0,0,0,0,0,0,0,0,0,0,0,0,0,0,0,0,0,0,0,0,0,0,0,0,0,0,0,0,0,0,0,0,0,0,0,0,0],"id":3,"left_children":[1,3,5,7,9,11,13,15,17,19,21,23,25,27,29,31,33,35,37,39,41,43,45,47,49,51,53,55,57,59,61,63,65,67,69,71,73,75,77,79,81,83,85,87,89,91,93,95,97,99,101,103,105,107,109,111,113,115,117,119,121,123,125,-1,-1,-1,-1,-1,-1,-1,-1,-1,-1,-1,-1,-1,-1,-1,-1,-1,-1,-1,-1,-1,-1,-1,-1,-1,-1,-1,-1,-1,-1,-1,-1,-1,-1,-1,-1,-1,-1,-1,-1,-1,-1,-1,-1,-1,-1,-1,-1,-1,-1,-1,-1,-1,-1,-1,-1,-1,-1,-1,-1,-1,-1,-1,-1],"loss_changes":[1.6328661E7,6.905476E6,5.490436E6,7.004655E5,1.492062E6,9.99651E5,1.7435461E6,2.9811772E5,2.41254E5,2.182875E5,1.47139E5,6.7424825E5,3.36687E5,5.2058012E5,2.5332483E5,5.1057984E4,5.4359047E4,3.60916E4,9.5194625E4,7.7961625E4,7.400025E4,3.741975E4,3.856E4,2.27073E5,1.8195345E5,1.01329E5,6.2037375E4,1.774784E5,1.89017E5,6.519953E4,5.1906383E4,2.2913922E4,2.33058E4,1.3195678E4,3.1477938E4,5.38851E3,1.7809812E4,1.7232625E4,1.42179375E4,9.945594E3,1.4650875E4,1.5887875E4,1.11055E4,2.1899375E3,5.9985E3,3.13025E3,1.5152E4,6.00105E4,5.8218812E4,6.957634E4,1.1812102E4,4.2662E4,3.2638E4,1.48811875E4,4.5888516E3,2.4748963E4,2.7295156E4,3.8078125E4,3.5729875E4,1.3055594E4,1.1073961E4,1.4087064E4,2.2306648E4,0E0,0E0,0E0,0E0,0E0,0E0,0E0,0E0,0E0,0E0,0E0,0E0,0E0,0E0,0E0,0E0,0E0,0E0,0E0,0E0,0E0,0E0,0E0,0E0,0E0,0E0,0E0,0E0,0E0,0E0,0E0,0E0,0E0,0E0,0E0,0E0,0E0,0E0,0E0,0E0,0E0,0E0,0E0,0E0,0E0,0E0,0E0,0E0,0E0,0E0,0E0,0E0,0E0,0E0,0E0,0E0,0E0,0E0,0E0,0E0,0E0,0E0,0E0,0E0],"parents":[2147483647,0,0,1,1,2,2,3,3,4,4,5,5,6,6,7,7,8,8,9,9,10,10,11,11,12,12,13,13,14,14,15,15,16,16,17,17,18,18,19,19,20,20,21,21,22,22,23,23,24,24,25,25,26,26,27,27,28,28,29,29,30,30,31,31,32,32,33,33,34,34,35,35,36,36,37,37,38,38,39,39,40,40,41,41,42,42,43,43,44,44,45,45,46,46,47,47,48,48,49,49,50,50,51,51,52,52,53,53,54,54,55,55,56,56,57,57,58,58,59,59,60,60,61,61,62,62],"right_children":[2,4,6,8,10,12,14,16,18,20,22,24,26,28,30,32,34,36,38,40,42,44,46,48,50,52,54,56,58,60,62,64,66,68,70,72,74,76,78,80,82,84,86,88,90,92,94,96,98,100,102,104,106,108,110,112,114,116,118,120,122,124,126,-1,-1,-1,-1,-1,-1,-1,-1,-1,-1,-1,-1,-1,-1,-1,-1,-1,-1,-1,-1,-1,-1,-1,-1,-1,-1,-1,-1,-1,-1,-1,-1,-1,-1,-1,-1,-1,-1,-1,-1,-1,-1,-1,-1,-1,-1,-1,-1,-1,-1,-1,-1,-1,-1,-1,-1,-1,-1,-1,-1,-1,-1,-1,-1],"split_conditions":[1E0,9E-1,1.13E0,1.74E1,2.42E1,2E0,2E0,5.8E-1,6.5E-1,1.1E0,2.95E1,1.97E1,2.17E1,1.52E0,2.45E1,1.29E1,1.2E1,4.3E-1,2.49E1,1.63E1,1.8E1,1.12E0,1.11E0,6.5E-1,2.74E1,1.55E1,2.86E1,2.41E1,2.86E1,1.52E0,1.57E0,3.9E-1,4E-1,7.4E-1,7.3E-1,2.19E1,2.21E1,7.6E-1,2.95E1,1.2E1,1.98E1,1.36E1,2.06E1,1.02E0,2.67E1,3.3E1,3.27E1,1.3E1,1.37E1,6.7E-1,3.53E1,6E-1,6.2E-1,7.4E-1,3.53E1,1.66E1,3.12E1,1.89E0,1.99E0,1.58E1,1.92E0,3.12E1,3.12E1,-9.6420664E-1,-5.1044506E-1,-5.3196716E-1,-9.0687215E-2,-1.4728115E-1,2.0033634E-1,2.4156764E-1,6.1291635E-1,-1.20591305E-1,3.54835E-1,4.0064842E-1,8.202556E-1,8.443451E-1,1.1592368E0,1.5958327E0,2.219491E0,6.2648517E-1,9.918524E-1,1.3105499E0,1.6415195E0,1.2325826E0,1.6906395E0,1.9632902E0,2.2299716E0,1.9047396E0,2.1791017E0,2.5083807E0,2.7518816E0,2.415544E0,2.7558715E0,2.9892638E0,3.2851262E0,-1.3630419E0,-1.0006644E0,-8.7700236E-1,-5.2236664E-1,-6.132264E-1,-1.2497117E-1,4.237786E-1,8.3889467E-1,-1.7221806E0,-1.443499E0,-1.4163014E0,-1.1528004E0,-1.112713E0,-8.4077376E-1,-5.140514E-1,-2.5905308E-1,-2.5249177E-1,1.8194315E-1,6.132718E-1,1.1085953E0,7.631441E-1,1.2239304E0,1.5595912E0,2.064383E0,-1.1288273E0,-7.9287964E-1,-5.4326576E-1,-2.5243756E-1,-4.405093E-1,-9.216754E-2,-1.864746E-2,3.3277592E-1],"split_indices":[1,5,5,6,6,1,1,5,5,5,6,6,6,5,6,6,6,5,6,6,6,5,5,5,6,6,6,6,6,5,5,5,5,5,5,6,6,5,6,6,6,6,6,5,6,6,6,6,6,5,6,5,5,5,6,6,6,5,5,6,5,6,6,0,0,0,0,0,0,0,0,0,0,0,0,0,0,0,0,0,0,0,0,0,0,0,0,0,0,0,0,0,0,0,0,0,0,0,0,0,0,0,0,0,0,0,0,0,0,0,0,0,0,0,0,0,0,0,0,0,0,0,0,0,0,0,0],"split_type":[0,0,0,0,0,0,0,0,0,0,0,0,0,0,0,0,0,0,0,0,0,0,0,0,0,0,0,0,0,0,0,0,0,0,0,0,0,0,0,0,0,0,0,0,0,0,0,0,0,0,0,0,0,0,0,0,0,0,0,0,0,0,0,0,0,0,0,0,0,0,0,0,0,0,0,0,0,0,0,0,0,0,0,0,0,0,0,0,0,0,0,0,0,0,0,0,0,0,0,0,0,0,0,0,0,0,0,0,0,0,0,0,0,0,0,0,0,0,0,0,0,0,0,0,0,0,0],"sum_hessian":[2.31264E5,7.7149E4,1.54115E5,4.0578E4,3.6571E4,1.08107E5,4.6008E4,2.497E4,1.5608E4,2.0174E4,1.6397E4,5.3828E4,5.4279E4,2.3225E4,2.2783E4,1.1228E4,1.3742E4,7.046E3,8.562E3,9.084E3,1.109E4,5.901E3,1.0496E4,3.7948E4,1.588E4,4.2713E4,1.1566E4,1.0234E4,1.2991E4,1.0727E4,1.2056E4,5.37E3,5.858E3,4.557E3,9.185E3,1.608E3,5.438E3,7.062E3,1.5E3,3.643E3,5.441E3,4.438E3,6.652E3,1.388E3,4.513E3,1.57E3,8.926E3,1.8722E4,1.9226E4,1.2929E4,2.951E3,2.2633E4,2.008E4,8.635E3,2.931E3,5.768E3,4.466E3,7.224E3,5.767E3,5.479E3,5.248E3,4.711E3,7.345E3,1.578E3,3.792E3,1.676E3,4.182E3,2.745E3,1.812E3,4.936E3,4.249E3,1.318E3,2.9E2,4.093E3,1.345E3,3.178E3,3.884E3,7.83E2,7.17E2,1.057E3,2.586E3,2.589E3,2.852E3,9.89E2,3.449E3,2.817E3,3.835E3,7.42E2,6.46E2,2.226E3,2.287E3,4.73E2,1.097E3,2.611E3,6.315E3,7.986E3,1.0736E4,7.782E3,1.1444E4,4.45E3,8.479E3,1.863E3,1.088E3,9.574E3,1.3059E4,7.597E3,1.2483E4,3.238E3,5.397E3,1.736E3,1.195E3,2.014E3,3.754E3,2.154E3,2.312E3,3.367E3,3.857E3,3.283E3,2.484E3,1.676E3,3.803E3,2.707E3,2.541E3,2.074E3,2.637E3,3.201E3,4.144E3],"tree_param":{"num_deleted":"0","num_feature":"12","num_nodes":"127","size_leaf_vector":"1"}},{"base_weights":[6.2209717E-4,1.0689512E1,-5.350204E0,3.373045E0,2.0619587E1,-9.074681E0,2.4280772E0,-1.16562426E-1,8.270358E0,1.600405E1,2.7168655E1,-6.3819895E0,-1.1743841E1,7.8199167E0,-3.0608866E0,-2.823158E0,3.2348156E0,5.67028E0,1.42417345E1,1.280968E1,1.8756947E1,2.468261E1,2.8899553E1,-8.950337E0,-2.6104825E0,-1.3498553E1,-8.99341E0,2.803218E0,1.1834725E1,-5.7419033E0,5.2388823E-1,-5.9513187E0,-1.1011313E0,7.641243E-1,5.404304E0,3.3635356E0,8.080526E0,1.2505102E1,2.0580729E1,1.0935762E1,1.5855994E1,1.6332598E1,2.0496119E1,2.12867E1,2.5393835E1,2.581005E1,2.9557959E1,-1.1652633E1,-7.2987022E0,-3.7832956E0,4.157169E0,-1.5182423E1,-1.26033125E1,-9.964548E0,-4.912637E0,-3.7447134E-1,7.1445713E0,8.544107E0,1.544853E1,-8.0076275E0,-3.3748477E0,-8.9745003E-1,3.1189716E0,-8.848301E-1,-4.7920057E-1,-3.422852E-1,-4.144717E-3,-2.4399927E-1,1.8784444E-1,4.2039418E-1,8.344451E-1,5.9580695E-2,4.3013796E-1,6.9172704E-1,9.679863E-1,1.1325825E0,1.4431958E0,1.881914E0,2.165603E0,8.807437E-1,1.2385327E0,1.3795509E0,1.6734228E0,1.4957843E0,1.7766863E0,1.9225025E0,2.1898959E0,1.9833468E0,2.248299E0,2.44764E0,2.659175E0,2.444504E0,2.6646302E0,2.8584313E0,3.0003648E0,-1.3934741E0,-1.0696911E0,-8.2752055E-1,-4.8060438E-1,-6.789545E-1,-2.4082415E-1,1.8305816E-1,6.039337E-1,-1.6780062E0,-1.4445463E0,-1.4310244E0,-1.1927005E0,-1.1430411E0,-9.0180844E-1,-6.561687E-1,-3.4348822E-1,-3.0414346E-1,8.2481906E-2,4.708942E-1,9.3768865E-1,6.2512666E-1,1.0704461E0,1.3271121E0,1.8125378E0,-9.4711554E-1,-6.300191E-1,-4.6827936E-1,-1.890877E-1,-1.8947469E-1,1.0544145E-1,1.9581515E-1,5.086527E-1],"categories":[],"categories_nodes":[],"categories_segments":[],"categories_sizes":[],"default_left":[0,0,0,0,0,0,0,0,0,0,0,0,0,0,0,0,0,0,0,0,0,0,0,0,0,0,0,0,0,0,0,0,0,0,0,0,0,0,0,0,0,0,0,0,0,0,0,0,0,0,0,0,0,0,0,0,0,0,0,0,0,0,0,0,0,0,0,0,0,0,0,0,0,0,0,0,0,0,0,0,0,0,0,0,0,0,0,0,0,0,0,0,0,0,0,0,0,0,0,0,0,0,0,0,0,0,0,0,0,0,0,0,0,0,0,0,0,0,0,0,0,0,0,0,0,0,0],"id":4,"left_children":[1,3,5,7,9,11,13,15,17,19,21,23,25,27,29,31,33,35,37,39,41,43,45,47,49,51,53,55,57,59,61,63,65,67,69,71,73,75,77,79,81,83,85,87,89,91,93,95,97,99,101,103,105,107,109,111,113,115,117,119,121,123,125,-1,-1,-1,-1,-1,-1,-1,-1,-1,-1,-1,-1,-1,-1,-1,-1,-1,-1,-1,-1,-1,-1,-1,-1,-1,-1,-1,-1,-1,-1,-1,-1,-1,-1,-1,-1,-1,-1,-1,-1,-1,-1,-1,-1,-1,-1,-1,-1,-1,-1,-1,-1,-1,-1,-1,-1,-1,-1,-1,-1,-1,-1,-1,-1],"loss_changes":[1.3227118E7,5.605115E6,4.464768E6,7.5915975E5,9.8888E5,7.48941E5,1.476904E6,2.3530634E5,2.8688712E5,1.68609E5,5.7503E4,5.0252425E5,2.52459E5,5.0699862E5,2.3766953E5,7.729907E4,6.2119836E4,7.157222E4,6.145625E4,5.058125E4,4.31405E4,1.288825E4,1.5449E4,1.3766275E5,1.6684753E5,4.79705E4,8.0744375E4,1.544016E5,1.6614888E5,7.585E4,3.9034414E4,1.7069203E4,2.2774768E4,1.9356215E4,2.1743875E4,1.708232E4,1.16481875E4,9.8415E3,1.8730938E3,1.6883875E4,5.89275E3,8.236375E3,1.027775E4,1.2386875E3,4.39625E3,9.558125E2,1.99E3,2.53825E4,4.6592625E4,7.403986E4,1.3585828E4,1.2809E4,2.3916E4,2.2743125E4,9.532508E3,2.0674178E4,2.5673281E4,3.6196562E4,3.8595375E4,1.8002219E4,1.3424484E4,1.3312769E4,8.543535E3,0E0,0E0,0E0,0E0,0E0,0E0,0E0,0E0,0E0,0E0,0E0,0E0,0E0,0E0,0E0,0E0,0E0,0E0,0E0,0E0,0E0,0E0,0E0,0E0,0E0,0E0,0E0,0E0,0E0,0E0,0E0,0E0,0E0,0E0,0E0,0E0,0E0,0E0,0E0,0E0,0E0,0E0,0E0,0E0,0E0,0E0,0E0,0E0,0E0,0E0,0E0,0E0,0E0,0E0,0E0,0E0,0E0,0E0,0E0,0E0,0E0,0E0,0E0,0E0],"parents":[2147483647,0,0,1,1,2,2,3,3,4,4,5,5,6,6,7,7,8,8,9,9,10,10,11,11,12,12,13,13,14,14,15,15,16,16,17,17,18,18,19,19,20,20,21,21,22,22,23,23,24,24,25,25,26,26,27,27,28,28,29,29,30,30,31,31,32,32,33,33,34,34,35,35,36,36,37,37,38,38,39,39,40,40,41,41,42,42,43,43,44,44,45,45,46,46,47,47,48,48,49,49,50,50,51,51,52,52,53,53,54,54,55,55,56,56,57,57,58,58,59,59,60,60,61,61,62,62],"right_children":[2,4,6,8,10,12,14,16,18,20,22,24,26,28,30,32,34,36,38,40,42,44,46,48,50,52,54,56,58,60,62,64,66,68,70,72,74,76,78,80,82,84,86,88,90,92,94,96,98,100,102,104,106,108,110,112,114,116,118,120,122,124,126,-1,-1,-1,-1,-1,-1,-1,-1,-1,-1,-1,-1,-1,-1,-1,-1,-1,-1,-1,-1,-1,-1,-1,-1,-1,-1,-1,-1,-1,-1,-1,-1,-1,-1,-1,-1,-1,-1,-1,-1,-1,-1,-1,-1,-1,-1,-1,-1,-1,-1,-1,-1,-1,-1,-1,-1,-1,-1,-1,-1,-1,-1,-1,-1],"split_conditions":[1E0,9.6E-1,1.09E0,7E-1,2.59E1,2E0,2E0,1.59E1,2.06E1,1.88E1,3.18E1,1.78E1,1.83E1,1.46E0,2.69E1,4.7E-1,5.4E-1,1.53E1,2.83E1,1.21E0,1.19E0,1.19E0,1.18E0,5.7E-1,2.62E1,5.6E-1,2.57E1,2.35E1,2.77E1,1.45E0,1.88E0,1.06E1,1.12E1,3.8E-1,2.13E1,1.07E1,8.4E-1,2.36E1,3.36E1,1.43E1,1.54E1,2.2E1,2.24E1,1.06E0,2.92E1,1.05E0,3.45E1,1.11E1,8.7E-1,6.1E-1,3.15E1,1.15E1,1.19E1,6.6E-1,3.09E1,1.56E1,3.06E1,1.87E0,1.95E0,1.93E1,1.9E0,3.56E1,3.5E1,-8.848301E-1,-4.7920057E-1,-3.422852E-1,-4.144717E-3,-2.4399927E-1,1.8784444E-1,4.2039418E-1,8.344451E-1,5.9580695E-2,4.3013796E-1,6.9172704E-1,9.679863E-1,1.1325825E0,1.4431958E0,1.881914E0,2.165603E0,8.807437E-1,1.2385327E0,1.3795509E0,1.6734228E0,1.4957843E0,1.7766863E0,1.9225025E0,2.1898959E0,1.9833468E0,2.248299E0,2.44764E0,2.659175E0,2.444504E0,2.6646302E0,2.8584313E0,3.0003648E0,-1.3934741E0,-1.0696911E0,-8.2752055E-1,-4.8060438E-1,-6.789545E-1,-2.4082415E-1,1.8305816E-1,6.039337E-1,-1.6780062E0,-1.4445463E0,-1.4310244E0,-1.1927005E0,-1.1430411E0,-9.0180844E-1,-6.561687E-1,-3.4348822E-1,-3.0414346E-1,8.2481906E-2,4.708942E-1,9.3768865E-1,6.2512666E-1,1.0704461E0,1.3271121E0,1.8125378E0,-9.4711554E-1,-6.300191E-1,-4.6827936E-1,-1.890877E-1,-1.8947469E-1,1.0544145E-1,1.9581515E-1,5.086527E-1],"split_indices":[1,5,5,5,6,1,1,6,6,6,6,6,6,5,6,5,5,6,6,5,5,5,5,5,6,5,6,6,6,5,5,6,6,5,6,6,5,6,6,6,6,6,6,5,6,5,6,6,5,5,6,6,6,5,6,6,6,5,5,6,5,6,6,0,0,0,0,0,0,0,0,0,0,0,0,0,0,0,0,0,0,0,0,0,0,0,0,0,0,0,0,0,0,0,0,0,0,0,0,0,0,0,0,0,0,0,0,0,0,0,0,0,0,0,0,0,0,0,0,0,0,0,0,0,0,0,0],"split_type":[0,0,0,0,0,0,0,0,0,0,0,0,0,0,0,0,0,0,0,0,0,0,0,0,0,0,0,0,0,0,0,0,0,0,0,0,0,0,0,0,0,0,0,0,0,0,0,0,0,0,0,0,0,0,0,0,0,0,0,0,0,0,0,0,0,0,0,0,0,0,0,0,0,0,0,0,0,0,0,0,0,0,0,0,0,0,0,0,0,0,0,0,0,0,0,0,0,0,0,0,0,0,0,0,0,0,0,0,0,0,0,0,0,0,0,0,0,0,0,0,0,0,0,0,0,0,0],"sum_hessian":[2.31264E5,7.7149E4,1.54115E5,4.4421E4,3.2728E4,1.04214E5,4.9901E4,2.5939E4,1.8482E4,1.92E4,1.3528E4,5.188E4,5.2334E4,2.5173E4,2.4728E4,1.435E4,1.1589E4,1.2877E4,5.605E3,8.89E3,1.031E4,5.559E3,7.969E3,3.0862E4,2.1018E4,3.1948E4,2.0386E4,1.1191E4,1.3982E4,1.4147E4,1.0581E4,5.094E3,9.256E3,5.419E3,6.17E3,6.581E3,6.296E3,4.402E3,1.203E3,5.507E3,3.383E3,4.311E3,5.999E3,9.68E2,4.591E3,1.407E3,6.562E3,1.1705E4,1.9157E4,1.7914E4,3.104E3,1.1084E4,2.0864E4,1.6466E4,3.92E3,6.462E3,4.729E3,7.32E3,6.662E3,7.227E3,6.92E3,6.837E3,3.744E3,1.454E3,3.64E3,2.9E3,6.356E3,1.398E3,4.021E3,4.383E3,1.787E3,1.666E3,4.915E3,3.648E3,2.648E3,2.735E3,1.667E3,4.63E2,7.4E2,2.234E3,3.273E3,1.016E3,2.367E3,2.207E3,2.104E3,3.155E3,2.844E3,4.45E2,5.23E2,2.612E3,1.979E3,5.46E2,8.61E2,2.081E3,4.481E3,3.451E3,8.254E3,1.3763E4,5.394E3,5.621E3,1.2293E4,1.389E3,1.715E3,3.492E3,7.592E3,5.915E3,1.4949E4,6.456E3,1.001E4,1.851E3,2.069E3,2.004E3,4.458E3,2.263E3,2.466E3,3.553E3,3.767E3,3.677E3,2.985E3,3.889E3,3.338E3,3.677E3,3.243E3,4.525E3,2.312E3,2.356E3,1.388E3],"tree_param":{"num_deleted":"0","num_feature":"12","num_nodes":"127","size_leaf_vector":"1"}},{"base_weights":[7.0189085E-4,9.621094E0,-4.815237E0,2.0615873E0,1.743724E1,-7.5479474E0,3.7989268E0,-4.366066E-1,6.4203887E0,1.2723253E1,2.3262838E1,-8.921035E0,-2.5066895E0,9.0578E0,-1.5383714E0,-3.7307298E0,1.9052279E0,2.6528816E0,8.876867E0,9.583653E0,1.5216647E1,2.0251097E1,2.5360233E1,-6.5860143E0,-1.1298344E1,1.2846761E0,-5.9755397E0,5.0204597E0,1.1974312E1,-3.7341826E0,1.2769616E0,-5.414977E0,-1.828003E0,1.4211462E-1,3.441679E0,-3.6082262E-1,3.6327565E0,7.5559225E0,1.3558708E1,7.0572705E0,1.1847441E1,1.2169478E1,1.6731642E1,1.6377613E1,2.1474522E1,2.156343E1,2.6087675E1,-8.135591E0,-3.0649874E0,-1.2176877E1,-9.195653E0,-5.361671E-1,5.6025333E0,-7.222629E0,-2.9772725E0,2.512769E0,8.209555E0,9.716869E0,1.5239431E1,-5.186045E0,-1.7958864E0,2.1970406E-1,3.7291696E0,-8.4578556E-1,-4.477586E-1,-4.886841E-1,-9.819912E-2,-9.4185166E-2,1.8946253E-1,2.3224401E-1,5.260131E-1,-1.1355299E-1,2.8133863E-1,2.822339E-1,6.431894E-1,6.2358016E-1,8.7953013E-1,1.1768906E0,1.7489709E0,4.6986076E-1,7.928893E-1,1.0880008E0,1.3399851E0,8.989503E-1,1.2969521E0,1.5419246E0,1.7809123E0,1.5385945E0,1.7553896E0,2.027783E0,2.2497876E0,1.9756333E0,2.227162E0,2.4721196E0,2.6757507E0,-9.6256226E-1,-6.140611E-1,-5.013415E-1,-1.8762933E-1,-1.32785E0,-1.0763106E0,-1.022696E0,-8.082843E-1,-2.4604578E-1,1.766796E-1,4.4299445E-1,7.633535E-1,-8.403007E-1,-5.957567E-1,-3.7162334E-1,-1.4131711E-1,2.6353477E-2,3.7802216E-1,6.938501E-1,1.0429131E0,8.342978E-1,1.2694604E0,1.3867991E0,1.8085136E0,-6.685237E-1,-3.5952947E-1,-3.139939E-1,-3.5364512E-2,-5.500425E-2,1.8549743E-1,2.8266254E-1,5.430142E-1],"categories":[],"categories_nodes":[],"categories_segments":[],"categories_sizes":[],"default_left":[0,0,0,0,0,0,0,0,0,0,0,0,0,0,0,0,0,0,0,0,0,0,0,0,0,0,0,0,0,0,0,0,0,0,0,0,0,0,0,0,0,0,0,0,0,0,0,0,0,0,0,0,0,0,0,0,0,0,0,0,0,0,0,0,0,0,0,0,0,0,0,0,0,0,0,0,0,0,0,0,0,0,0,0,0,0,0,0,0,0,0,0,0,0,0,0,0,0,0,0,0,0,0,0,0,0,0,0,0,0,0,0,0,0,0,0,0,0,0,0,0,0,0,0,0,0,0],"id":5,"left_children":[1,3,5,7,9,11,13,15,17,19,21,23,25,27,29,31,33,35,37,39,41,43,45,47,49,51,53,55,57,59,61,63,65,67,69,71,73,75,77,79,81,83,85,87,89,91,93,95,97,99,101,103,105,107,109,111,113,115,117,119,121,123,125,-1,-1,-1,-1,-1,-1,-1,-1,-1,-1,-1,-1,-1,-1,-1,-1,-1,-1,-1,-1,-1,-1,-1,-1,-1,-1,-1,-1,-1,-1,-1,-1,-1,-1,-1,-1,-1,-1,-1,-1,-1,-1,-1,-1,-1,-1,-1,-1,-1,-1,-1,-1,-1,-1,-1,-1,-1,-1,-1,-1,-1,-1,-1,-1],"loss_changes":[1.0714836E7,4.5584655E6,3.627921E6,4.2707453E5,1.041357E6,8.098615E5,1.0418205E6,1.9233983E5,1.3221831E5,1.639975E5,1.06645E5,5.10368E5,3.2941775E5,2.2008425E5,1.1388844E5,3.3190406E4,3.9476855E4,1.665948E4,5.3386875E4,5.3013375E4,5.37395E4,3.267375E4,2.70455E4,2.5309438E5,8.40565E4,9.40971E4,4.8886E4,6.270192E4,7.9854875E4,2.9117047E4,2.0929367E4,1.5635891E4,1.2587501E4,1.2894793E4,1.5836523E4,3.4090242E3,9.63873E3,1.0985781E4,1.3176094E4,8.987984E3,7.2058125E3,9.76475E3,1.0758E4,1.686125E3,6.02575E3,1.62425E3,7.013E3,9.569975E4,3.283036E4,4.9902E4,1.5331375E4,3.7313734E4,8.420625E3,1.3743094E4,4.4376797E3,1.2519707E4,9.666422E3,2.6158875E4,1.7057812E4,1.4087078E4,8.593967E3,7.1028516E3,3.7182617E3,0E0,0E0,0E0,0E0,0E0,0E0,0E0,0E0,0E0,0E0,0E0,0E0,0E0,0E0,0E0,0E0,0E0,0E0,0E0,0E0,0E0,0E0,0E0,0E0,0E0,0E0,0E0,0E0,0E0,0E0,0E0,0E0,0E0,0E0,0E0,0E0,0E0,0E0,0E0,0E0,0E0,0E0,0E0,0E0,0E0,0E0,0E0,0E0,0E0,0E0,0E0,0E0,0E0,0E0,0E0,0E0,0E0,0E0,0E0,0E0,0E0,0E0,0E0,0E0],"parents":[2147483647,0,0,1,1,2,2,3,3,4,4,5,5,6,6,7,7,8,8,9,9,10,10,11,11,12,12,13,13,14,14,15,15,16,16,17,17,18,18,19,19,20,20,21,21,22,22,23,23,24,24,25,25,26,26,27,27,28,28,29,29,30,30,31,31,32,32,33,33,34,34,35,35,36,36,37,37,38,38,39,39,40,40,41,41,42,42,43,43,44,44,45,45,46,46,47,47,48,48,49,49,50,50,51,51,52,52,53,53,54,54,55,55,56,56,57,57,58,58,59,59,60,60,61,61,62,62],"right_children":[2,4,6,8,10,12,14,16,18,20,22,24,26,28,30,32,34,36,38,40,42,44,46,48,50,52,54,56,58,60,62,64,66,68,70,72,74,76,78,80,82,84,86,88,90,92,94,96,98,100,102,104,106,108,110,112,114,116,118,120,122,124,126,-1,-1,-1,-1,-1,-1,-1,-1,-1,-1,-1,-1,-1,-1,-1,-1,-1,-1,-1,-1,-1,-1,-1,-1,-1,-1,-1,-1,-1,-1,-1,-1,-1,-1,-1,-1,-1,-1,-1,-1,-1,-1,-1,-1,-1,-1,-1,-1,-1,-1,-1,-1,-1,-1,-1,-1,-1,-1,-1,-1,-1,-1,-1,-1],"split_conditions":[1E0,8.8E-1,1.25E0,1.76E1,2.4E1,2.19E1,2E0,5.6E-1,6.1E-1,1.08E0,3.01E1,2E0,2E0,2.44E1,2.83E1,1.34E1,1.32E1,4.2E-1,2.39E1,1.71E1,1.71E1,1.11E0,1.11E0,8.3E-1,8.4E-1,2.89E1,2.89E1,1.77E0,1.88E0,1.81E0,2E0,3.6E-1,3.6E-1,7.3E-1,7.4E-1,2.17E1,2.24E1,7.4E-1,2.92E1,1.21E1,2.11E1,1.26E1,2.02E1,1.01E0,2.67E1,3.33E1,3.36E1,1.56E1,1.49E1,1.57E1,1.63E1,9E-1,3.59E1,8.8E-1,3.62E1,1.79E1,2.13E0,3.5E1,3.47E1,2.06E1,2.13E1,3.62E1,3.59E1,-8.4578556E-1,-4.477586E-1,-4.886841E-1,-9.819912E-2,-9.4185166E-2,1.8946253E-1,2.3224401E-1,5.260131E-1,-1.1355299E-1,2.8133863E-1,2.822339E-1,6.431894E-1,6.2358016E-1,8.7953013E-1,1.1768906E0,1.7489709E0,4.6986076E-1,7.928893E-1,1.0880008E0,1.3399851E0,8.989503E-1,1.2969521E0,1.5419246E0,1.7809123E0,1.5385945E0,1.7553896E0,2.027783E0,2.2497876E0,1.9756333E0,2.227162E0,2.4721196E0,2.6757507E0,-9.6256226E-1,-6.140611E-1,-5.013415E-1,-1.8762933E-1,-1.32785E0,-1.0763106E0,-1.022696E0,-8.082843E-1,-2.4604578E-1,1.766796E-1,4.4299445E-1,7.633535E-1,-8.403007E-1,-5.957567E-1,-3.7162334E-1,-1.4131711E-1,2.6353477E-2,3.7802216E-1,6.938501E-1,1.0429131E0,8.342978E-1,1.2694604E0,1.3867991E0,1.8085136E0,-6.685237E-1,-3.5952947E-1,-3.139939E-1,-3.5364512E-2,-5.500425E-2,1.8549743E-1,2.8266254E-1,5.430142E-1],"split_indices":[1,5,5,6,6,6,1,5,5,5,6,1,1,6,6,6,6,5,6,6,6,5,5,5,5,6,6,5,5,5,5,5,5,5,5,6,6,5,6,6,6,6,6,5,6,6,6,6,6,6,6,5,6,5,6,6,5,6,6,6,6,6,6,0,0,0,0,0,0,0,0,0,0,0,0,0,0,0,0,0,0,0,0,0,0,0,0,0,0,0,0,0,0,0,0,0,0,0,0,0,0,0,0,0,0,0,0,0,0,0,0,0,0,0,0,0,0,0,0,0,0,0,0,0,0,0,0],"split_type":[0,0,0,0,0,0,0,0,0,0,0,0,0,0,0,0,0,0,0,0,0,0,0,0,0,0,0,0,0,0,0,0,0,0,0,0,0,0,0,0,0,0,0,0,0,0,0,0,0,0,0,0,0,0,0,0,0,0,0,0,0,0,0,0,0,0,0,0,0,0,0,0,0,0,0,0,0,0,0,0,0,0,0,0,0,0,0,0,0,0,0,0,0,0,0,0,0,0,0,0,0,0,0,0,0,0,0,0,0,0,0,0,0,0,0,0,0,0,0,0,0,0,0,0,0,0,0],"sum_hessian":[2.31264E5,7.7149E4,1.54115E5,3.9219E4,3.793E4,1.16999E5,3.7116E4,2.4931E4,1.4288E4,2.0967E4,1.6963E4,9.1953E4,2.5046E4,1.8695E4,1.8421E4,1.0359E4,1.4572E4,5.64E3,8.648E3,9.283E3,1.1684E4,6.968E3,9.995E3,4.6391E4,4.5562E4,1.1967E4,1.3079E4,7.842E3,1.0853E4,1.0349E4,8.072E3,5.494E3,4.865E3,6.786E3,7.786E3,1.384E3,4.256E3,6.747E3,1.901E3,4.389E3,4.894E3,3.883E3,7.801E3,1.676E3,5.292E3,1.612E3,8.383E3,3.2213E4,1.4178E4,3.2132E4,1.343E4,8.418E3,3.549E3,9.236E3,3.843E3,4.391E3,3.451E3,6.419E3,4.434E3,5.916E3,4.433E3,5.641E3,2.431E3,1.292E3,4.202E3,1.053E3,3.812E3,4.193E3,2.593E3,4.821E3,2.965E3,1.113E3,2.71E2,3.302E3,9.54E2,3.27E3,3.477E3,1.309E3,5.92E2,1.186E3,3.203E3,3.02E3,1.874E3,7.83E2,3.1E3,3.524E3,4.277E3,9.17E2,7.59E2,2.449E3,2.843E3,4.62E2,1.15E3,2.77E3,5.613E3,1.8438E4,1.3775E4,5.371E3,8.807E3,1.8055E4,1.4077E4,6.966E3,6.464E3,4.586E3,3.832E3,2.252E3,1.297E3,4.775E3,4.461E3,2.609E3,1.234E3,1.583E3,2.808E3,2.197E3,1.254E3,4.395E3,2.024E3,2.996E3,1.438E3,3.044E3,2.872E3,2.294E3,2.139E3,3.836E3,1.805E3,1.59E3,8.41E2],"tree_param":{"num_deleted":"0","num_feature":"12","num_nodes":"127","size_leaf_vector":"1"}},{"base_weights":[7.631459E-4,8.659382E0,-4.333715E0,2.907239E0,1.6981035E1,-7.5548124E0,1.6369778E0,9.946855E-2,7.182783E0,1.3237817E1,2.2088053E1,-5.4218254E0,-9.67304E0,5.9519506E0,-2.7319186E0,-1.8251797E0,3.3315496E0,5.1296134E0,1.2477661E1,1.0833565E1,1.5563936E1,2.0149664E1,2.3556639E1,-7.568715E0,-2.586353E0,-1.1141167E1,-7.602265E0,2.087467E0,9.692571E0,-5.3948846E0,-2.1954723E-1,-3.9158075E0,8.155076E-2,1.3376169E0,5.2558393E0,3.152146E0,7.1569953E0,1.0881677E1,1.6877234E1,9.268738E0,1.3046144E1,1.367252E1,1.6823666E1,1.753438E1,2.0674849E1,2.1285307E1,2.4085321E1,-1.0253131E1,-6.395683E0,-3.6888943E0,1.7365838E0,-1.2677283E1,-1.0457002E1,-8.38545E0,-4.5842476E0,-5.0593734E-1,5.4954386E0,7.432978E0,1.3319138E1,-6.927082E0,-3.1939738E0,-2.3227794E0,1.2656034E0,-6.409336E-1,-2.853383E-1,-1.4200068E-1,1.3238673E-1,4.2597067E-2,3.9717922E-1,4.400862E-1,7.8450656E-1,8.8777505E-2,3.979374E-1,6.17043E-1,8.322973E-1,9.2960596E-1,1.1791108E0,1.4715489E0,1.7522589E0,7.7633387E-1,1.0733255E0,1.1213998E0,1.3733968E0,1.283327E0,1.5046481E0,1.6013463E0,1.81578E0,1.6135975E0,1.8509943E0,1.9665464E0,2.1483467E0,2.0380895E0,2.186983E0,2.3336306E0,2.439094E0,-1.240681E0,-9.514894E-1,-8.4869987E-1,-5.6318206E-1,-6.5513885E-1,-2.7234924E-1,1.6444104E-2,4.2577234E-1,-1.405949E0,-1.2085588E0,-1.2023251E0,-9.9531984E-1,-9.9386257E-1,-7.784329E-1,-5.738868E-1,-2.987628E-1,-2.2046869E-1,6.9035515E-2,3.873824E-1,7.930398E-1,5.208927E-1,9.1545457E-1,1.1885293E0,1.593119E0,-8.339282E-1,-6.0464984E-1,-3.9986202E-1,-1.5522537E-1,-3.5238066E-1,-8.759286E-2,-8.460701E-3,2.578009E-1],"categories":[],"categories_nodes":[],"categories_segments":[],"categories_sizes":[],"default_left":[0,0,0,0,0,0,0,0,0,0,0,0,0,0,0,0,0,0,0,0,0,0,0,0,0,0,0,0,0,0,0,0,0,0,0,0,0,0,0,0,0,0,0,0,0,0,0,0,0,0,0,0,0,0,0,0,0,0,0,0,0,0,0,0,0,0,0,0,0,0,0,0,0,0,0,0,0,0,0,0,0,0,0,0,0,0,0,0,0,0,0,0,0,0,0,0,0,0,0,0,0,0,0,0,0,0,0,0,0,0,0,0,0,0,0,0,0,0,0,0,0,0,0,0,0,0,0],"id":6,"left_children":[1,3,5,7,9,11,13,15,17,19,21,23,25,27,29,31,33,35,37,39,41,43,45,47,49,51,53,55,57,59,61,63,65,67,69,71,73,75,77,79,81,83,85,87,89,91,93,95,97,99,101,103,105,107,109,111,113,115,117,119,121,123,125,-1,-1,-1,-1,-1,-1,-1,-1,-1,-1,-1,-1,-1,-1,-1,-1,-1,-1,-1,-1,-1,-1,-1,-1,-1,-1,-1,-1,-1,-1,-1,-1,-1,-1,-1,-1,-1,-1,-1,-1,-1,-1,-1,-1,-1,-1,-1,-1,-1,-1,-1,-1,-1,-1,-1,-1,-1,-1,-1,-1,-1,-1,-1,-1],"loss_changes":[8.679551E6,3.692915E6,2.9639998E6,5.476438E5,6.02494E5,4.522555E5,1.0181572E6,1.7130327E5,1.9652138E5,1.0160525E5,3.74865E4,3.036405E5,1.526135E5,3.9276638E5,1.79548E5,6.8803234E4,3.942867E4,5.222378E4,3.5289688E4,3.0873625E4,2.180275E4,7.542E3,8.5905E3,8.93255E4,1.02460984E5,3.075325E4,4.9220375E4,1.1813481E5,1.13043375E5,4.391125E4,4.3140086E4,2.179246E4,1.6842799E4,1.2123159E4,1.1543281E4,1.2357383E4,7.3497812E3,5.24025E3,1.6157812E3,1.1484594E4,4.51625E3,4.075625E3,5.704125E3,1.02325E3,3.484875E3,3.155625E2,8.37E2,1.36046875E4,3.1515125E4,4.7314656E4,1.731623E4,7.232375E3,1.59285E4,1.5369875E4,7.902492E3,1.5427963E4,2.2776188E4,3.2532031E4,1.9656812E4,9.500125E3,7.0598438E3,9.929648E3,1.4344746E4,0E0,0E0,0E0,0E0,0E0,0E0,0E0,0E0,0E0,0E0,0E0,0E0,0E0,0E0,0E0,0E0,0E0,0E0,0E0,0E0,0E0,0E0,0E0,0E0,0E0,0E0,0E0,0E0,0E0,0E0,0E0,0E0,0E0,0E0,0E0,0E0,0E0,0E0,0E0,0E0,0E0,0E0,0E0,0E0,0E0,0E0,0E0,0E0,0E0,0E0,0E0,0E0,0E0,0E0,0E0,0E0,0E0,0E0,0E0,0E0,0E0,0E0,0E0,0E0],"parents":[2147483647,0,0,1,1,2,2,3,3,4,4,5,5,6,6,7,7,8,8,9,9,10,10,11,11,12,12,13,13,14,14,15,15,16,16,17,17,18,18,19,19,20,20,21,21,22,22,23,23,24,24,25,25,26,26,27,27,28,28,29,29,30,30,31,31,32,32,33,33,34,34,35,35,36,36,37,37,38,38,39,39,40,40,41,41,42,42,43,43,44,44,45,45,46,46,47,47,48,48,49,49,50,50,51,51,52,52,53,53,54,54,55,55,56,56,57,57,58,58,59,59,60,60,61,61,62,62],"right_children":[2,4,6,8,10,12,14,16,18,20,22,24,26,28,30,32,34,36,38,40,42,44,46,48,50,52,54,56,58,60,62,64,66,68,70,72,74,76,78,80,82,84,86,88,90,92,94,96,98,100,102,104,106,108,110,112,114,116,118,120,122,124,126,-1,-1,-1,-1,-1,-1,-1,-1,-1,-1,-1,-1,-1,-1,-1,-1,-1,-1,-1,-1,-1,-1,-1,-1,-1,-1,-1,-1,-1,-1,-1,-1,-1,-1,-1,-1,-1,-1,-1,-1,-1,-1,-1,-1,-1,-1,-1,-1,-1,-1,-1,-1,-1,-1,-1,-1,-1,-1,-1,-1,-1,-1,-1,-1],"split_conditions":[1E0,9.8E-1,1.05E0,7.2E-1,2.59E1,2E0,2E0,1.69E1,2.13E1,1.92E1,3.21E1,1.73E1,1.78E1,1.47E0,2.39E1,5.3E-1,5.6E-1,1.57E1,2.83E1,1.21E0,1.2E0,1.2E0,1.21E0,5.2E-1,2.44E1,5.3E-1,2.48E1,2.29E1,3.01E1,1.46E0,1.52E0,1.11E1,1.27E1,2.13E1,2.23E1,1.1E1,8.5E-1,8.2E-1,8.3E-1,1.54E1,1.54E1,2.29E1,2.32E1,2.8E1,2.86E1,1.08E0,3.45E1,1.05E1,1.13E1,5.5E-1,3.03E1,1.12E1,1.13E1,5.7E-1,3.09E1,1.65E1,3.24E1,2.14E1,2.03E0,1.61E1,2.03E0,3.21E1,3.18E1,-6.409336E-1,-2.853383E-1,-1.4200068E-1,1.3238673E-1,4.2597067E-2,3.9717922E-1,4.400862E-1,7.8450656E-1,8.8777505E-2,3.979374E-1,6.17043E-1,8.322973E-1,9.2960596E-1,1.1791108E0,1.4715489E0,1.7522589E0,7.7633387E-1,1.0733255E0,1.1213998E0,1.3733968E0,1.283327E0,1.5046481E0,1.6013463E0,1.81578E0,1.6135975E0,1.8509943E0,1.9665464E0,2.1483467E0,2.0380895E0,2.186983E0,2.3336306E0,2.439094E0,-1.240681E0,-9.514894E-1,-8.4869987E-1,-5.6318206E-1,-6.5513885E-1,-2.7234924E-1,1.6444104E-2,4.2577234E-1,-1.405949E0,-1.2085588E0,-1.2023251E0,-9.9531984E-1,-9.9386257E-1,-7.784329E-1,-5.738868E-1,-2.987628E-1,-2.2046869E-1,6.9035515E-2,3.873824E-1,7.930398E-1,5.208927E-1,9.1545457E-1,1.1885293E0,1.593119E0,-8.339282E-1,-6.0464984E-1,-3.9986202E-1,-1.5522537E-1,-3.5238066E-1,-8.759286E-2,-8.460701E-3,2.578009E-1],"split_indices":[1,5,5,5,6,1,1,6,6,6,6,6,6,5,6,5,5,6,6,5,5,5,5,5,6,5,6,6,6,5,5,6,6,6,6,6,5,5,5,6,6,6,6,6,6,5,6,6,6,5,6,6,6,5,6,6,6,6,5,6,5,6,6,0,0,0,0,0,0,0,0,0,0,0,0,0,0,0,0,0,0,0,0,0,0,0,0,0,0,0,0,0,0,0,0,0,0,0,0,0,0,0,0,0,0,0,0,0,0,0,0,0,0,0,0,0,0,0,0,0,0,0,0,0,0,0,0],"split_type":[0,0,0,0,0,0,0,0,0,0,0,0,0,0,0,0,0,0,0,0,0,0,0,0,0,0,0,0,0,0,0,0,0,0,0,0,0,0,0,0,0,0,0,0,0,0,0,0,0,0,0,0,0,0,0,0,0,0,0,0,0,0,0,0,0,0,0,0,0,0,0,0,0,0,0,0,0,0,0,0,0,0,0,0,0,0,0,0,0,0,0,0,0,0,0,0,0,0,0,0,0,0,0,0,0,0,0,0,0,0,0,0,0,0,0,0,0,0,0,0,0,0,0,0,0,0,0],"sum_hessian":[2.31264E5,7.7149E4,1.54115E5,4.5618E4,3.1531E4,1.00108E5,5.4007E4,2.7536E4,1.8082E4,1.8197E4,1.3334E4,4.9882E4,5.0226E4,2.7171E4,2.6836E4,1.7259E4,1.0277E4,1.3031E4,5.051E3,8.951E3,9.246E3,5.754E3,7.58E3,2.8387E4,2.1495E4,2.9387E4,2.0839E4,1.3365E4,1.3806E4,1.3027E4,1.3809E4,8.232E3,9.027E3,5.048E3,5.229E3,6.598E3,6.433E3,3.709E3,1.342E3,5.246E3,3.705E3,3.701E3,5.545E3,9.68E2,4.786E3,1.439E3,6.141E3,8.63E3,1.9757E4,1.7127E4,4.368E3,9.05E3,2.0337E4,1.6544E4,4.295E3,7.59E3,5.775E3,8.508E3,5.298E3,7.679E3,5.348E3,5.715E3,8.094E3,2.458E3,5.774E3,4.087E3,4.94E3,3.751E3,1.297E3,3.933E3,1.296E3,1.766E3,4.832E3,3.488E3,2.945E3,1.356E3,2.353E3,3.14E2,1.028E3,2.59E3,2.656E3,1.016E3,2.689E3,2.304E3,1.397E3,3.458E3,2.087E3,4.05E2,5.63E2,2.14E3,2.646E3,5.79E2,8.6E2,1.802E3,4.339E3,2.199E3,6.431E3,5.283E3,1.4474E4,4.318E3,1.2809E4,2.691E3,1.677E3,2.706E3,6.344E3,4.944E3,1.5393E4,4.612E3,1.1932E4,2.491E3,1.804E3,3.136E3,4.454E3,3.468E3,2.307E3,3.714E3,4.794E3,3.424E3,1.874E3,2.946E3,4.733E3,3.588E3,1.76E3,3.122E3,2.593E3,3.99E3,4.104E3],"tree_param":{"num_deleted":"0","num_feature":"12","num_nodes":"127","size_leaf_vector":"1"}},{"base_weights":[8.0203393E-4,7.793899E0,-3.9003987E0,1.6603092E0,1.413572E1,-6.9850426E0,1.1636003E0,-1.7602684E-1,5.641524E0,1.0317942E1,1.8853773E1,-5.110082E0,-8.850446E0,4.993413E0,-2.696833E0,-2.5669518E0,2.0086496E0,2.5405037E0,7.5454693E0,7.5359282E0,1.2204973E1,1.620819E1,2.0429043E1,-6.91035E0,-2.572944E0,-1.0193394E1,-7.1137905E0,1.4987769E0,8.57126E0,-5.049124E0,-3.130609E-1,-4.854655E0,-1.5151653E0,4.279354E-1,3.311362E0,-2.1368045E-1,3.319864E0,6.6882124E0,1.2470318E1,5.65504E0,9.479089E0,9.710463E0,1.3484599E1,1.2977584E1,1.717544E1,1.8021296E1,2.117896E1,-9.520109E0,-5.982623E0,-3.6254349E0,6.8082E-1,-1.1609312E1,-9.627715E0,-7.8404737E0,-4.744306E0,-3.4859574E-1,5.2479835E0,6.385236E0,1.1645977E1,-6.3578715E0,-2.960872E0,-2.1180198E0,1.1858844E0,-6.6183954E-1,-3.5392794E-1,-3.0050966E-1,-2.7601363E-3,-1.6430214E-1,1.1223813E-1,2.4662104E-1,4.58283E-1,-2.734591E-1,6.30129E-2,2.7480808E-1,5.8136374E-1,5.850214E-1,8.162333E-1,1.069956E0,1.4510764E0,3.8088188E-1,6.4555424E-1,8.567564E-1,1.040502E0,6.67396E-1,1.0336089E0,1.2151976E0,1.4191575E0,1.2452079E0,1.4083303E0,1.6385463E0,1.802287E0,1.6527942E0,1.8962061E0,1.9876333E0,2.1790898E0,-1.13184E0,-8.787576E-1,-8.071122E-1,-5.3674203E-1,-6.297558E-1,-2.8568047E-1,-4.3524962E-2,3.5603374E-1,-1.3003391E0,-1.114422E0,-1.1041608E0,-9.1971236E-1,-9.323864E-1,-7.376788E-1,-5.620474E-1,-2.9510817E-1,-2.0272179E-1,8.55624E-2,4.0550852E-1,7.5843894E-1,5.022032E-1,8.9456815E-1,1.0016956E0,1.3651301E0,-7.3273474E-1,-5.3504795E-1,-3.7306365E-1,-1.4981823E-1,-3.4120193E-1,-9.9636786E-2,4.163007E-2,3.156929E-1],"categories":[],"categories_nodes":[],"categories_segments":[],"categories_sizes":[],"default_left":[0,0,0,0,0,0,0,0,0,0,0,0,0,0,0,0,0,0,0,0,0,0,0,0,0,0,0,0,0,0,0,0,0,0,0,0,0,0,0,0,0,0,0,0,0,0,0,0,0,0,0,0,0,0,0,0,0,0,0,0,0,0,0,0,0,0,0,0,0,0,0,0,0,0,0,0,0,0,0,0,0,0,0,0,0,0,0,0,0,0,0,0,0,0,0,0,0,0,0,0,0,0,0,0,0,0,0,0,0,0,0,0,0,0,0,0,0,0,0,0,0,0,0,0,0,0,0],"id":7,"left_children":[1,3,5,7,9,11,13,15,17,19,21,23,25,27,29,31,33,35,37,39,41,43,45,47,49,51,53,55,57,59,61,63,65,67,69,71,73,75,77,79,81,83,85,87,89,91,93,95,97,99,101,103,105,107,109,111,113,115,117,119,121,123,125,-1,-1,-1,-1,-1,-1,-1,-1,-1,-1,-1,-1,-1,-1,-1,-1,-1,-1,-1,-1,-1,-1,-1,-1,-1,-1,-1,-1,-1,-1,-1,-1,-1,-1,-1,-1,-1,-1,-1,-1,-1,-1,-1,-1,-1,-1,-1,-1,-1,-1,-1,-1,-1,-1,-1,-1,-1,-1,-1,-1,-1,-1,-1,-1],"loss_changes":[7.0310495E6,3.0009675E6,2.4073975E6,2.867324E5,6.83037E5,3.349365E5,8.6256975E5,1.4020634E5,7.30745E4,1.0998475E5,7.03665E4,2.18164E5,1.1189575E5,3.661705E5,1.6291923E5,3.083018E4,2.8881148E4,1.0112879E4,3.2298281E4,3.0928719E4,3.9744125E4,1.957575E4,1.88105E4,6.7592125E4,6.790458E4,2.1571E4,3.6016875E4,1.0262706E5,9.7191125E4,3.99485E4,3.9048785E4,9.340023E3,1.9461846E4,9.116949E3,8.251172E3,2.213978E3,5.219918E3,8.025E3,3.94925E3,6.345172E3,3.4286875E3,7.9839375E3,7.604E3,6.753125E2,2.966875E3,3.242375E3,6.02275E3,9.5511875E3,2.6445188E4,3.075314E4,1.5578556E4,4.8625E3,1.16785E4,1.09523125E4,7.708836E3,2.006847E4,1.3600906E4,2.9483906E4,1.9502688E4,8.739844E3,6.340133E3,9.500479E3,1.1959314E4,0E0,0E0,0E0,0E0,0E0,0E0,0E0,0E0,0E0,0E0,0E0,0E0,0E0,0E0,0E0,0E0,0E0,0E0,0E0,0E0,0E0,0E0,0E0,0E0,0E0,0E0,0E0,0E0,0E0,0E0,0E0,0E0,0E0,0E0,0E0,0E0,0E0,0E0,0E0,0E0,0E0,0E0,0E0,0E0,0E0,0E0,0E0,0E0,0E0,0E0,0E0,0E0,0E0,0E0,0E0,0E0,0E0,0E0,0E0,0E0,0E0,0E0,0E0,0E0],"parents":[2147483647,0,0,1,1,2,2,3,3,4,4,5,5,6,6,7,7,8,8,9,9,10,10,11,11,12,12,13,13,14,14,15,15,16,16,17,17,18,18,19,19,20,20,21,21,22,22,23,23,24,24,25,25,26,26,27,27,28,28,29,29,30,30,31,31,32,32,33,33,34,34,35,35,36,36,37,37,38,38,39,39,40,40,41,41,42,42,43,43,44,44,45,45,46,46,47,47,48,48,49,49,50,50,51,51,52,52,53,53,54,54,55,55,56,56,57,57,58,58,59,59,60,60,61,61,62,62],"right_children":[2,4,6,8,10,12,14,16,18,20,22,24,26,28,30,32,34,36,38,40,42,44,46,48,50,52,54,56,58,60,62,64,66,68,70,72,74,76,78,80,82,84,86,88,90,92,94,96,98,100,102,104,106,108,110,112,114,116,118,120,122,124,126,-1,-1,-1,-1,-1,-1,-1,-1,-1,-1,-1,-1,-1,-1,-1,-1,-1,-1,-1,-1,-1,-1,-1,-1,-1,-1,-1,-1,-1,-1,-1,-1,-1,-1,-1,-1,-1,-1,-1,-1,-1,-1,-1,-1,-1,-1,-1,-1,-1,-1,-1,-1,-1,-1,-1,-1,-1,-1,-1,-1,-1,-1,-1,-1],"split_conditions":[1E0,8.8E-1,1.01E0,1.83E1,2.4E1,2E0,2E0,5.9E-1,6.1E-1,1.06E0,2.95E1,1.74E1,1.74E1,1.43E0,2.39E1,4.1E-1,1.34E1,4.1E-1,2.54E1,1.75E1,1.71E1,1.09E0,1.21E0,4.9E-1,2.36E1,5.1E-1,2.39E1,2.48E1,2.92E1,1.42E0,1.54E0,1.25E1,1.36E1,9.8E0,7.5E-1,3.2E-1,2.32E1,2.19E1,3.12E1,1.26E1,2.05E1,1.21E1,1.23E0,2.64E1,2.67E1,1.02E0,3.3E1,1.08E1,1.09E1,5.2E-1,3.06E1,1.06E1,1.1E1,5.3E-1,3.03E1,1.7E1,3.47E1,2.01E0,1.94E0,1.75E1,2E0,3.06E1,2.09E0,-6.6183954E-1,-3.5392794E-1,-3.0050966E-1,-2.7601363E-3,-1.6430214E-1,1.1223813E-1,2.4662104E-1,4.58283E-1,-2.734591E-1,6.30129E-2,2.7480808E-1,5.8136374E-1,5.850214E-1,8.162333E-1,1.069956E0,1.4510764E0,3.8088188E-1,6.4555424E-1,8.567564E-1,1.040502E0,6.67396E-1,1.0336089E0,1.2151976E0,1.4191575E0,1.2452079E0,1.4083303E0,1.6385463E0,1.802287E0,1.6527942E0,1.8962061E0,1.9876333E0,2.1790898E0,-1.13184E0,-8.787576E-1,-8.071122E-1,-5.3674203E-1,-6.297558E-1,-2.8568047E-1,-4.3524962E-2,3.5603374E-1,-1.3003391E0,-1.114422E0,-1.1041608E0,-9.1971236E-1,-9.323864E-1,-7.376788E-1,-5.620474E-1,-2.9510817E-1,-2.0272179E-1,8.55624E-2,4.0550852E-1,7.5843894E-1,5.022032E-1,8.9456815E-1,1.0016956E0,1.3651301E0,-7.3273474E-1,-5.3504795E-1,-3.7306365E-1,-1.4981823E-1,-3.4120193E-1,-9.9636786E-2,4.163007E-2,3.156929E-1],"split_indices":[1,5,5,6,6,1,1,5,5,5,6,6,6,5,6,5,6,5,6,6,6,5,5,5,6,5,6,6,6,5,5,6,6,6,5,5,6,6,6,6,6,6,5,6,6,5,6,6,6,5,6,6,6,5,6,6,6,5,5,6,5,6,5,0,0,0,0,0,0,0,0,0,0,0,0,0,0,0,0,0,0,0,0,0,0,0,0,0,0,0,0,0,0,0,0,0,0,0,0,0,0,0,0,0,0,0,0,0,0,0,0,0,0,0,0,0,0,0,0,0,0,0,0,0,0,0,0],"split_type":[0,0,0,0,0,0,0,0,0,0,0,0,0,0,0,0,0,0,0,0,0,0,0,0,0,0,0,0,0,0,0,0,0,0,0,0,0,0,0,0,0,0,0,0,0,0,0,0,0,0,0,0,0,0,0,0,0,0,0,0,0,0,0,0,0,0,0,0,0,0,0,0,0,0,0,0,0,0,0,0,0,0,0,0,0,0,0,0,0,0,0,0,0,0,0,0,0,0,0,0,0,0,0,0,0,0,0,0,0,0,0,0,0,0,0,0,0,0,0,0,0,0,0,0,0,0,0],"sum_hessian":[2.31264E5,7.7149E4,1.54115E5,3.9219E4,3.793E4,9.5775E4,5.834E4,2.684E4,1.2379E4,2.0967E4,1.6963E4,4.7767E4,4.8008E4,2.9286E4,2.9054E4,1.2815E4,1.4025E4,4.71E3,7.669E3,8.476E3,1.2491E4,6.335E3,1.0628E4,2.794E4,1.9827E4,2.707E4,2.0938E4,1.4816E4,1.447E4,1.4623E4,1.4431E4,4.035E3,8.78E3,6.337E3,7.688E3,1.039E3,3.671E3,6.534E3,1.135E3,4.309E3,4.167E3,4.238E3,8.253E3,1.463E3,4.872E3,2.53E3,8.098E3,7.325E3,2.0615E4,1.4981E4,4.846E3,7.722E3,1.9348E4,1.6022E4,4.916E3,9.926E3,4.89E3,8.459E3,6.011E3,8.988E3,5.635E3,6.547E3,7.884E3,1.722E3,2.313E3,4.386E3,4.394E3,1.591E3,4.746E3,4.62E3,3.068E3,2.6E2,7.79E2,2.988E3,6.83E2,4.169E3,2.365E3,6.11E2,5.24E2,1.305E3,3.004E3,2.105E3,2.062E3,7.26E2,3.512E3,2.867E3,5.386E3,1E3,4.63E2,2.532E3,2.34E3,9.85E2,1.545E3,2.599E3,5.499E3,2.116E3,5.209E3,4.688E3,1.5927E4,3.345E3,1.1636E4,3.493E3,1.353E3,1.925E3,5.797E3,4.511E3,1.4837E4,3.811E3,1.2211E4,3.301E3,1.615E3,4.146E3,5.78E3,3.239E3,1.651E3,5.522E3,2.937E3,3.32E3,2.691E3,4.577E3,4.411E3,3.691E3,1.944E3,3.039E3,3.508E3,5.671E3,2.213E3],"tree_param":{"num_deleted":"0","num_feature":"12","num_nodes":"127","size_leaf_vector":"1"}},{"base_weights":[7.950758E-4,7.014833E0,-3.510411E0,1.3973982E0,1.26267E1,-6.37782E0,9.071356E-1,-6.185249E-1,4.2642293E0,9.226929E0,1.697658E1,-4.711064E0,-8.038387E0,4.3294835E0,-2.5334566E0,-2.8313167E0,1.1694999E0,1.3850783E0,5.9765253E0,6.7411327E0,1.10120735E1,1.482097E1,1.8521107E1,-6.4254246E0,-2.625322E0,-8.937039E0,-6.00909E0,1.1695101E0,7.6330523E0,-4.465993E0,-1.3873234E-1,-6.2355056E0,-2.2366874E0,-6.854656E-1,1.9177579E0,-1.7284503E0,1.9955902E0,5.039941E0,9.310482E0,4.853244E0,8.365086E0,8.231942E0,1.1964359E1,1.247E1,1.5942014E1,1.5996333E1,1.91384E1,-8.309057E0,-5.3952518E0,-4.1067915E0,-8.3465904E-1,-1.0114705E1,-8.33551E0,-6.475379E0,-3.278281E0,-6.165828E-1,4.2596784E0,4.468075E0,9.439801E0,-5.5961056E0,-2.4581823E0,-1.4683472E0,1.4797812E0,-8.772809E-1,-5.4293853E-1,-4.7222897E-1,-1.5397955E-1,-2.4651782E-1,-4.8349206E-3,1.2399145E-1,3.222589E-1,-4.0749723E-1,-9.1255896E-2,1.1156559E-1,3.5128888E-1,4.0159354E-1,6.082267E-1,8.309166E-1,1.276339E0,2.8014562E-1,5.4383403E-1,7.4180114E-1,9.272539E-1,5.510451E-1,8.769733E-1,1.0792698E0,1.2920058E0,1.150606E0,1.373346E0,1.5233811E0,1.6741192E0,1.4530715E0,1.6677052E0,1.8223097E0,1.9628E0,-9.78683E-1,-7.4448365E-1,-7.2930676E-1,-4.8841172E-1,-6.282261E-1,-3.4222987E-1,-1.8843126E-1,1.7103815E-1,-1.1477102E0,-9.6569633E-1,-9.820383E-1,-7.966956E-1,-7.6528037E-1,-5.9556955E-1,-3.9309603E-1,-1.8150102E-1,-2.3960033E-1,1.8583246E-2,3.3697936E-1,7.02321E-1,3.321558E-1,7.2242695E-1,8.3102554E-1,1.2360963E0,-6.756449E-1,-4.8033795E-1,-3.6753866E-1,-1.5427983E-1,-2.2315715E-1,5.2230707E-3,5.620531E-2,3.0958423E-1],"categories":[],"categories_nodes":[],"categories_segments":[],"categories_sizes":[],"default_left":[0,0,0,0,0,0,0,0,0,0,0,0,0,0,0,0,0,0,0,0,0,0,0,0,0,0,0,0,0,0,0,0,0,0,0,0,0,0,0,0,0,0,0,0,0,0,0,0,0,0,0,0,0,0,0,0,0,0,0,0,0,0,0,0,0,0,0,0,0,0,0,0,0,0,0,0,0,0,0,0,0,0,0,0,0,0,0,0,0,0,0,0,0,0,0,0,0,0,0,0,0,0,0,0,0,0,0,0,0,0,0,0,0,0,0,0,0,0,0,0,0,0,0,0,0,0,0],"id":8,"left_children":[1,3,5,7,9,11,13,15,17,19,21,23,25,27,29,31,33,35,37,39,41,43,45,47,49,51,53,55,57,59,61,63,65,67,69,71,73,75,77,79,81,83,85,87,89,91,93,95,97,99,101,103,105,107,109,111,113,115,117,119,121,123,125,-1,-1,-1,-1,-1,-1,-1,-1,-1,-1,-1,-1,-1,-1,-1,-1,-1,-1,-1,-1,-1,-1,-1,-1,-1,-1,-1,-1,-1,-1,-1,-1,-1,-1,-1,-1,-1,-1,-1,-1,-1,-1,-1,-1,-1,-1,-1,-1,-1,-1,-1,-1,-1,-1,-1,-1,-1,-1,-1,-1,-1,-1,-1,-1],"loss_changes":[5.695557E6,2.432082E6,1.9521795E6,2.2283556E5,5.705945E5,2.5862325E5,7.143003E5,8.957512E4,7.847169E4,9.606425E4,5.60925E4,1.6676512E5,8.5316E4,3.174677E5,1.3999767E5,2.0467219E4,1.738176E4,1.1290675E4,3.1122188E4,2.7729781E4,3.3281E4,1.843975E4,1.505925E4,4.9631125E4,5.582236E4,2.28985E4,1.8278E4,8.580058E4,8.497775E4,3.797247E4,2.9077838E4,3.0286055E3,1.4915594E4,4.0818635E3,7.8881367E3,1.861011E3,6.6249688E3,8.2955625E3,7.4588438E3,5.0160312E3,4.1149062E3,4.6644375E3,1.0373875E4,2.6285312E3,2.45325E3,1.696125E3,3.19E3,1.14838125E4,1.60204375E4,1.7126906E4,2.54591E4,6.7265E3,1.167675E4,7.4647188E3,1.9965527E3,1.4067466E4,1.3979164E4,1.7055938E4,3.1124562E4,9.819875E3,6.714125E3,8.609018E3,9.0363E3,0E0,0E0,0E0,0E0,0E0,0E0,0E0,0E0,0E0,0E0,0E0,0E0,0E0,0E0,0E0,0E0,0E0,0E0,0E0,0E0,0E0,0E0,0E0,0E0,0E0,0E0,0E0,0E0,0E0,0E0,0E0,0E0,0E0,0E0,0E0,0E0,0E0,0E0,0E0,0E0,0E0,0E0,0E0,0E0,0E0,0E0,0E0,0E0,0E0,0E0,0E0,0E0,0E0,0E0,0E0,0E0,0E0,0E0,0E0,0E0,0E0,0E0,0E0,0E0],"parents":[2147483647,0,0,1,1,2,2,3,3,4,4,5,5,6,6,7,7,8,8,9,9,10,10,11,11,12,12,13,13,14,14,15,15,16,16,17,17,18,18,19,19,20,20,21,21,22,22,23,23,24,24,25,25,26,26,27,27,28,28,29,29,30,30,31,31,32,32,33,33,34,34,35,35,36,36,37,37,38,38,39,39,40,40,41,41,42,42,43,43,44,44,45,45,46,46,47,47,48,48,49,49,50,50,51,51,52,52,53,53,54,54,55,55,56,56,57,57,58,58,59,59,60,60,61,61,62,62],"right_children":[2,4,6,8,10,12,14,16,18,20,22,24,26,28,30,32,34,36,38,40,42,44,46,48,50,52,54,56,58,60,62,64,66,68,70,72,74,76,78,80,82,84,86,88,90,92,94,96,98,100,102,104,106,108,110,112,114,116,118,120,122,124,126,-1,-1,-1,-1,-1,-1,-1,-1,-1,-1,-1,-1,-1,-1,-1,-1,-1,-1,-1,-1,-1,-1,-1,-1,-1,-1,-1,-1,-1,-1,-1,-1,-1,-1,-1,-1,-1,-1,-1,-1,-1,-1,-1,-1,-1,-1,-1,-1,-1,-1,-1,-1,-1,-1,-1,-1,-1,-1,-1,-1,-1,-1,-1,-1],"split_conditions":[1E0,8.7E-1,9.9E-1,1.69E1,2.41E1,2E0,2E0,5.7E-1,5.9E-1,1.06E0,3.03E1,1.68E1,1.93E1,1.41E0,2.5E1,3.3E-1,1.14E1,3.7E-1,2.34E1,1.69E1,1.62E1,1.21E0,1.15E0,5.4E-1,7.4E-1,1.24E1,2.67E1,2.36E1,2.37E1,1.44E0,1.69E0,1.03E1,1.05E1,9E0,7.5E-1,2.9E-1,2.06E1,7.3E-1,3.06E1,1.16E1,2.01E1,1.14E1,1.98E1,1.05E0,2.74E1,3.39E1,3.39E1,4E-1,1.06E1,4.6E-1,2.41E1,4.7E-1,4.7E-1,5.9E-1,3.56E1,1.52E1,3.56E1,2.07E0,2.06E0,1.66E1,1.87E1,3.47E1,3.45E1,-8.772809E-1,-5.4293853E-1,-4.7222897E-1,-1.5397955E-1,-2.4651782E-1,-4.8349206E-3,1.2399145E-1,3.222589E-1,-4.0749723E-1,-9.1255896E-2,1.1156559E-1,3.5128888E-1,4.0159354E-1,6.082267E-1,8.309166E-1,1.276339E0,2.8014562E-1,5.4383403E-1,7.4180114E-1,9.272539E-1,5.510451E-1,8.769733E-1,1.0792698E0,1.2920058E0,1.150606E0,1.373346E0,1.5233811E0,1.6741192E0,1.4530715E0,1.6677052E0,1.8223097E0,1.9628E0,-9.78683E-1,-7.4448365E-1,-7.2930676E-1,-4.8841172E-1,-6.282261E-1,-3.4222987E-1,-1.8843126E-1,1.7103815E-1,-1.1477102E0,-9.6569633E-1,-9.820383E-1,-7.966956E-1,-7.6528037E-1,-5.9556955E-1,-3.9309603E-1,-1.8150102E-1,-2.3960033E-1,1.8583246E-2,3.3697936E-1,7.02321E-1,3.321558E-1,7.2242695E-1,8.3102554E-1,1.2360963E0,-6.756449E-1,-4.8033795E-1,-3.6753866E-1,-1.5427983E-1,-2.2315715E-1,5.2230707E-3,5.620531E-2,3.0958423E-1],"split_indices":[1,5,5,6,6,1,1,5,5,5,6,6,6,5,6,5,6,5,6,6,6,5,5,5,5,6,6,6,6,5,5,6,6,6,5,5,6,5,6,6,6,6,6,5,6,6,6,5,6,5,6,5,5,5,6,6,6,5,5,6,6,6,6,0,0,0,0,0,0,0,0,0,0,0,0,0,0,0,0,0,0,0,0,0,0,0,0,0,0,0,0,0,0,0,0,0,0,0,0,0,0,0,0,0,0,0,0,0,0,0,0,0,0,0,0,0,0,0,0,0,0,0,0,0,0,0,0],"split_type":[0,0,0,0,0,0,0,0,0,0,0,0,0,0,0,0,0,0,0,0,0,0,0,0,0,0,0,0,0,0,0,0,0,0,0,0,0,0,0,0,0,0,0,0,0,0,0,0,0,0,0,0,0,0,0,0,0,0,0,0,0,0,0,0,0,0,0,0,0,0,0,0,0,0,0,0,0,0,0,0,0,0,0,0,0,0,0,0,0,0,0,0,0,0,0,0,0,0,0,0,0,0,0,0,0,0,0,0,0,0,0,0,0,0,0,0,0,0,0,0,0,0,0,0,0,0,0],"sum_hessian":[2.31264E5,7.7149E4,1.54115E5,3.8556E4,3.8593E4,9.3454E4,6.0661E4,2.2638E4,1.5918E4,2.1664E4,1.6929E4,4.6642E4,4.6812E4,3.0411E4,3.025E4,1.0117E4,1.2521E4,5.937E3,9.981E3,9.057E3,1.2607E4,7.071E3,9.858E3,2.5599E4,2.1043E4,3.2442E4,1.437E4,1.5544E4,1.4867E4,1.674E4,1.351E4,1.503E3,8.614E3,3.599E3,8.922E3,9.73E2,4.964E3,7.794E3,2.187E3,4.19E3,4.867E3,3.219E3,9.388E3,2.287E3,4.784E3,1.942E3,7.916E3,9.048E3,1.6551E4,1.1515E4,9.528E3,1.0963E4,2.1479E4,1.2273E4,2.097E3,9.851E3,5.693E3,5.404E3,9.463E3,1.071E4,6.03E3,7.417E3,6.093E3,3.6E2,1.143E3,1.885E3,6.729E3,9.48E2,2.651E3,5.873E3,3.049E3,2.5E2,7.23E2,3.143E3,1.821E3,3.934E3,3.86E3,1.698E3,4.89E2,9.31E2,3.259E3,2.386E3,2.481E3,5.33E2,2.686E3,4.223E3,5.165E3,1.303E3,9.84E2,2.547E3,2.237E3,6.23E2,1.319E3,2.772E3,5.144E3,3.335E3,5.713E3,3.509E3,1.3042E4,2.754E3,8.761E3,6.746E3,2.782E3,2.751E3,8.212E3,4.266E3,1.7213E4,3.754E3,8.519E3,1.449E3,6.48E2,3.061E3,6.79E3,4.308E3,1.385E3,3.818E3,1.586E3,6.827E3,2.636E3,4.344E3,6.366E3,2.587E3,3.443E3,4.938E3,2.479E3,3.887E3,2.206E3],"tree_param":{"num_deleted":"0","num_feature":"12","num_nodes":"127","size_leaf_vector":"1"}},{"base_weights":[7.709676E-4,6.313611E0,-3.1594174E0,2.0366585E0,1.2308897E1,-4.930621E0,2.6556213E0,-4.7030964E-1,4.5857544E0,9.584109E0,1.6101053E1,-6.307735E0,-2.518689E0,6.139871E0,-8.7517387E-1,-2.4798312E0,1.2774487E0,2.9916563E0,8.082992E0,7.8554754E0,1.1392892E1,1.4601924E1,1.7145185E1,-4.9305964E0,-7.687749E0,-2.2857197E-1,-4.7737565E0,3.078869E0,7.847448E0,-2.3144822E0,1.1053069E0,-4.614638E0,-1.5590408E0,-1.0626537E0,2.1188202E0,1.6114519E0,4.373812E0,6.956467E0,1.1587105E1,6.6083913E0,9.572332E0,1.0010474E1,1.2442164E1,1.2737253E1,1.5033489E1,1.5526346E1,1.7554815E1,-6.344977E0,-3.374708E0,-8.704677E0,-6.49158E0,-1.6273667E0,2.6154506E0,-5.82161E0,-2.797056E0,1.4907691E0,5.3213806E0,6.0813885E0,9.911989E0,-3.2664602E0,-9.666026E-1,3.9677295E-1,3.0484664E0,-6.862615E-1,-3.8842764E-1,-3.7648824E-1,-1.07038036E-1,-3.365086E-1,-3.8291026E-2,1.2467914E-1,3.7942937E-1,7.969228E-2,3.0280182E-1,3.5109237E-1,5.3783447E-1,5.7269996E-1,7.9069513E-1,1.0265682E0,1.2762702E0,5.4240507E-1,7.6761776E-1,8.219687E-1,1.0068774E0,9.256585E-1,1.0880675E0,1.163814E0,1.3181608E0,1.165001E0,1.3413639E0,1.438785E0,1.5599877E0,1.4356205E0,1.5923342E0,1.7000383E0,1.7840647E0,-8.3622736E-1,-5.658081E-1,-5.49292E-1,-2.7303857E-1,-9.904094E-1,-8.346902E-1,-6.9002163E-1,-4.9762994E-1,-3.51704E-1,-1.0533301E-1,1.390684E-1,4.3876773E-1,-7.0534164E-1,-5.377225E-1,-3.456381E-1,-1.20800994E-1,3.1215224E-2,2.6093578E-1,3.462151E-1,6.455564E-1,5.179519E-1,9.037266E-1,9.0333843E-1,1.2804273E0,-4.4743082E-1,-2.325003E-1,-2.639E-1,-3.6984358E-2,-9.1023445E-3,1.8637733E-1,2.4552095E-1,4.5429134E-1],"categories":[],"categories_nodes":[],"categories_segments":[],"categories_sizes":[],"default_left":[0,0,0,0,0,0,0,0,0,0,0,0,0,0,0,0,0,0,0,0,0,0,0,0,0,0,0,0,0,0,0,0,0,0,0,0,0,0,0,0,0,0,0,0,0,0,0,0,0,0,0,0,0,0,0,0,0,0,0,0,0,0,0,0,0,0,0,0,0,0,0,0,0,0,0,0,0,0,0,0,0,0,0,0,0,0,0,0,0,0,0,0,0,0,0,0,0,0,0,0,0,0,0,0,0,0,0,0,0,0,0,0,0,0,0,0,0,0,0,0,0,0,0,0,0,0,0],"id":9,"left_children":[1,3,5,7,9,11,13,15,17,19,21,23,25,27,29,31,33,35,37,39,41,43,45,47,49,51,53,55,57,59,61,63,65,67,69,71,73,75,77,79,81,83,85,87,89,91,93,95,97,99,101,103,105,107,109,111,113,115,117,119,121,123,125,-1,-1,-1,-1,-1,-1,-1,-1,-1,-1,-1,-1,-1,-1,-1,-1,-1,-1,-1,-1,-1,-1,-1,-1,-1,-1,-1,-1,-1,-1,-1,-1,-1,-1,-1,-1,-1,-1,-1,-1,-1,-1,-1,-1,-1,-1,-1,-1,-1,-1,-1,-1,-1,-1,-1,-1,-1,-1,-1,-1,-1,-1,-1,-1],"loss_changes":[4.613702E6,1.9782208E6,1.5873491E6,2.8776006E5,3.317565E5,3.9236675E5,4.426744E5,7.973969E4,1.244475E5,5.83615E4,2.077E4,1.4287375E5,2.217414E5,9.464019E4,5.094995E4,2.0752668E4,2.3910545E4,2.9252594E4,2.751225E4,2.0409625E4,1.3123125E4,4.250625E3,4.97275E3,8.2812E4,4.562975E4,8.475591E4,4.4794125E4,2.3094426E4,4.2325625E4,1.3278746E4,1.0356417E4,5.1976562E3,7.9509297E3,5.0256943E3,1.3045473E4,8.85442E3,6.623422E3,6.1388594E3,2.5083125E3,6.9668906E3,2.6174062E3,2.4879688E3,2.9310625E3,6.114844E2,1.4126875E3,5.1746875E2,6.95875E2,2.7272625E4,2.445061E4,8.62725E3,1.065425E4,1.5487492E4,1.5239941E4,7.701125E3,7.850414E3,5.0077383E3,5.6479688E3,1.6662531E4,1.34999375E4,6.8874766E3,4.2765312E3,3.9459739E3,1.7708926E3,0E0,0E0,0E0,0E0,0E0,0E0,0E0,0E0,0E0,0E0,0E0,0E0,0E0,0E0,0E0,0E0,0E0,0E0,0E0,0E0,0E0,0E0,0E0,0E0,0E0,0E0,0E0,0E0,0E0,0E0,0E0,0E0,0E0,0E0,0E0,0E0,0E0,0E0,0E0,0E0,0E0,0E0,0E0,0E0,0E0,0E0,0E0,0E0,0E0,0E0,0E0,0E0,0E0,0E0,0E0,0E0,0E0,0E0,0E0,0E0,0E0,0E0,0E0,0E0],"parents":[2147483647,0,0,1,1,2,2,3,3,4,4,5,5,6,6,7,7,8,8,9,9,10,10,11,11,12,12,13,13,14,14,15,15,16,16,17,17,18,18,19,19,20,20,21,21,22,22,23,23,24,24,25,25,26,26,27,27,28,28,29,29,30,30,31,31,32,32,33,33,34,34,35,35,36,36,37,37,38,38,39,39,40,40,41,41,42,42,43,43,44,44,45,45,46,46,47,47,48,48,49,49,50,50,51,51,52,52,53,53,54,54,55,55,56,56,57,57,58,58,59,59,60,60,61,61,62,62],"right_children":[2,4,6,8,10,12,14,16,18,20,22,24,26,28,30,32,34,36,38,40,42,44,46,48,50,52,54,56,58,60,62,64,66,68,70,72,74,76,78,80,82,84,86,88,90,92,94,96,98,100,102,104,106,108,110,112,114,116,118,120,122,124,126,-1,-1,-1,-1,-1,-1,-1,-1,-1,-1,-1,-1,-1,-1,-1,-1,-1,-1,-1,-1,-1,-1,-1,-1,-1,-1,-1,-1,-1,-1,-1,-1,-1,-1,-1,-1,-1,-1,-1,-1,-1,-1,-1,-1,-1,-1,-1,-1,-1,-1,-1,-1,-1,-1,-1,-1,-1,-1,-1,-1,-1,-1,-1,-1],"split_conditions":[1E0,9.7E-1,1.27E0,6.6E-1,2.59E1,8.5E-1,2E0,1.47E1,2.02E1,1.94E1,3.18E1,2E0,2E0,2.31E1,2.89E1,4.3E-1,4.4E-1,1.49E1,2.62E1,1.2E0,1.22E0,1.22E0,1.22E0,1.59E1,1.65E1,2.26E1,2.27E1,1.83E0,1.83E0,1.85E0,2.04E0,3E-1,9.6E0,3.2E-1,1.98E1,8.2E-1,8.1E-1,8E-1,3.27E1,1.53E1,1.54E1,2.25E1,2.24E1,2.77E1,2.86E1,3.42E1,3.47E1,4.6E-1,4.9E-1,4.5E-1,2.28E1,1.33E1,3.01E1,1.36E1,3.27E1,1.87E1,1.8E1,3.59E1,3.59E1,1.98E1,1.81E1,3.71E1,3.68E1,-6.862615E-1,-3.8842764E-1,-3.7648824E-1,-1.07038036E-1,-3.365086E-1,-3.8291026E-2,1.2467914E-1,3.7942937E-1,7.969228E-2,3.0280182E-1,3.5109237E-1,5.3783447E-1,5.7269996E-1,7.9069513E-1,1.0265682E0,1.2762702E0,5.4240507E-1,7.6761776E-1,8.219687E-1,1.0068774E0,9.256585E-1,1.0880675E0,1.163814E0,1.3181608E0,1.165001E0,1.3413639E0,1.438785E0,1.5599877E0,1.4356205E0,1.5923342E0,1.7000383E0,1.7840647E0,-8.3622736E-1,-5.658081E-1,-5.49292E-1,-2.7303857E-1,-9.904094E-1,-8.346902E-1,-6.9002163E-1,-4.9762994E-1,-3.51704E-1,-1.0533301E-1,1.390684E-1,4.3876773E-1,-7.0534164E-1,-5.377225E-1,-3.456381E-1,-1.20800994E-1,3.1215224E-2,2.6093578E-1,3.462151E-1,6.455564E-1,5.179519E-1,9.037266E-1,9.0333843E-1,1.2804273E0,-4.4743082E-1,-2.325003E-1,-2.639E-1,-3.6984358E-2,-9.1023445E-3,1.8637733E-1,2.4552095E-1,4.5429134E-1],"split_indices":[1,5,5,5,6,5,1,6,6,6,6,1,1,6,6,5,5,6,6,5,5,5,5,6,6,6,6,5,5,5,5,5,6,5,6,5,5,5,6,6,6,6,6,6,6,6,6,5,5,5,6,6,6,6,6,6,6,6,6,6,6,6,6,0,0,0,0,0,0,0,0,0,0,0,0,0,0,0,0,0,0,0,0,0,0,0,0,0,0,0,0,0,0,0,0,0,0,0,0,0,0,0,0,0,0,0,0,0,0,0,0,0,0,0,0,0,0,0,0,0,0,0,0,0,0,0,0],"split_type":[0,0,0,0,0,0,0,0,0,0,0,0,0,0,0,0,0,0,0,0,0,0,0,0,0,0,0,0,0,0,0,0,0,0,0,0,0,0,0,0,0,0,0,0,0,0,0,0,0,0,0,0,0,0,0,0,0,0,0,0,0,0,0,0,0,0,0,0,0,0,0,0,0,0,0,0,0,0,0,0,0,0,0,0,0,0,0,0,0,0,0,0,0,0,0,0,0,0,0,0,0,0,0,0,0,0,0,0,0,0,0,0,0,0,0,0,0,0,0,0,0,0,0,0,0,0,0],"sum_hessian":[2.31264E5,7.7149E4,1.54115E5,4.5028E4,3.2121E4,1.18133E5,3.5982E4,2.2702E4,2.2326E4,1.8693E4,1.3428E4,7.5197E4,4.2936E4,1.811E4,1.7872E4,1.056E4,1.2142E4,1.5337E4,6.989E3,9.561E3,9.132E3,5.519E3,7.909E3,3.764E4,3.7557E4,2.1303E4,2.1633E4,6.486E3,1.1624E4,1.035E4,7.522E3,3.181E3,7.379E3,3.211E3,8.931E3,7.675E3,7.662E3,5.291E3,1.698E3,5.541E3,4.02E3,3.945E3,5.187E3,1.043E3,4.476E3,1.605E3,6.304E3,1.9715E4,1.7925E4,2.0296E4,1.7261E4,1.428E4,7.023E3,1.4137E4,7.496E3,3.798E3,2.688E3,6.267E3,5.357E3,6.065E3,4.285E3,5.513E3,2.009E3,7.78E2,2.403E3,1.337E3,6.042E3,7.31E2,2.48E3,5.875E3,3.056E3,4.874E3,2.801E3,4.124E3,3.538E3,2.31E3,2.981E3,8.04E2,8.94E2,2.63E3,2.911E3,1.084E3,2.936E3,2.12E3,1.825E3,2.493E3,2.694E3,4.07E2,6.36E2,2.104E3,2.372E3,4.16E2,1.189E3,2.165E3,4.139E3,5.005E3,1.471E4,4.179E3,1.3746E4,4.657E3,1.5639E4,1.3592E4,3.669E3,3.326E3,1.0954E4,4.154E3,2.869E3,3.744E3,1.0393E4,5.297E3,2.199E3,1.85E3,1.948E3,1.02E3,1.668E3,4.804E3,1.463E3,4.112E3,1.245E3,2.655E3,3.41E3,1.126E3,3.159E3,4.138E3,1.375E3,1.44E3,5.69E2],"tree_param":{"num_deleted":"0","num_feature":"12","num_nodes":"127","size_leaf_vector":"1"}},{"base_weights":[7.8498764E-4,5.68255E0,-2.8434892E0,1.8914446E0,1.1167161E1,-5.0397625E0,9.833322E-1,-6.924994E-1,3.9573224E0,8.714243E0,1.4513769E1,-3.6610413E0,-6.4113584E0,3.8076942E0,-1.8653928E0,-2.6396E0,7.619704E-1,2.3231692E0,6.737608E0,7.0230656E0,1.0188929E1,1.3106703E1,1.5418109E1,-4.839519E0,-1.376266E0,-7.1560297E0,-4.624921E0,1.5102875E0,6.7009444E0,-3.7600954E0,-2.7268293E-1,-4.450598E0,-1.8351774E0,-8.4712565E-2,2.532966E0,1.1262738E0,3.452333E0,5.7847505E0,1.0226018E1,6.002753E0,8.593779E0,8.929519E0,1.1081397E1,1.1497875E1,1.348157E1,1.4022467E1,1.57725725E1,-6.243128E0,-3.80163E0,-2.1214838E0,1.3895408E0,-7.8162417E0,-6.347387E0,-5.176357E0,-2.8479548E0,2.749093E-1,4.7578297E0,5.105356E0,9.229511E0,-4.601755E0,-2.0246704E0,-1.7625865E0,8.047122E-1,-6.804225E-1,-3.8479063E-1,-3.9582452E-1,-1.407478E-1,-1.9752494E-1,6.4238064E-2,2.0063296E-1,4.744831E-1,2.7302245E-2,2.3331235E-1,2.602559E-1,4.3784213E-1,4.676396E-1,6.821713E-1,9.0442276E-1,1.1545514E0,4.277505E-1,6.605082E-1,5.495175E-1,8.738912E-1,8.179102E-1,9.773876E-1,1.0145129E0,1.1681162E0,1.0717504E0,1.2238322E0,1.2729199E0,1.3848351E0,1.3009704E0,1.4407073E0,1.5228744E0,1.605094E0,-7.6241475E-1,-5.51943E-1,-5.2397054E-1,-3.203158E-1,-3.8718387E-1,-1.384102E-1,6.1075833E-2,3.7827376E-1,-8.5518783E-1,-7.11652E-1,-7.3804873E-1,-5.947559E-1,-6.411473E-1,-4.8106432E-1,-3.3763433E-1,-1.3740782E-1,-1.10214606E-1,1.3883969E-1,4.0628186E-1,7.0536846E-1,2.845159E-1,6.076495E-1,8.211957E-1,1.0984609E0,-6.177214E-1,-4.2228365E-1,-2.54289E-1,-5.984474E-2,-2.6690632E-1,-8.444054E-2,-3.655263E-2,1.676677E-1],"categories":[],"categories_nodes":[],"categories_segments":[],"categories_sizes":[],"default_left":[0,0,0,0,0,0,0,0,0,0,0,0,0,0,0,0,0,0,0,0,0,0,0,0,0,0,0,0,0,0,0,0,0,0,0,0,0,0,0,0,0,0,0,0,0,0,0,0,0,0,0,0,0,0,0,0,0,0,0,0,0,0,0,0,0,0,0,0,0,0,0,0,0,0,0,0,0,0,0,0,0,0,0,0,0,0,0,0,0,0,0,0,0,0,0,0,0,0,0,0,0,0,0,0,0,0,0,0,0,0,0,0,0,0,0,0,0,0,0,0,0,0,0,0,0,0,0],"id":10,"left_children":[1,3,5,7,9,11,13,15,17,19,21,23,25,27,29,31,33,35,37,39,41,43,45,47,49,51,53,55,57,59,61,63,65,67,69,71,73,75,77,79,81,83,85,87,89,91,93,95,97,99,101,103,105,107,109,111,113,115,117,119,121,123,125,-1,-1,-1,-1,-1,-1,-1,-1,-1,-1,-1,-1,-1,-1,-1,-1,-1,-1,-1,-1,-1,-1,-1,-1,-1,-1,-1,-1,-1,-1,-1,-1,-1,-1,-1,-1,-1,-1,-1,-1,-1,-1,-1,-1,-1,-1,-1,-1,-1,-1,-1,-1,-1,-1,-1,-1,-1,-1,-1,-1,-1,-1,-1,-1],"loss_changes":[3.7373735E6,1.6041385E6,1.2953108E6,2.4352211E5,2.5871825E5,1.85146E5,4.521667E5,5.7403797E4,1.15164375E5,4.5313375E4,1.676625E4,1.3148431E5,6.5265125E4,1.8756747E5,8.443152E4,1.2617984E4,1.7398584E4,2.1576719E4,3.1132844E4,1.3538625E4,1.08250625E4,2.995625E3,3.791875E3,4.6909688E4,3.425684E4,1.8444875E4,1.4138719E4,6.3110566E4,5.0344438E4,1.8654703E4,2.4403895E4,3.7541484E3,5.4453633E3,1.0793225E4,4.362158E3,7.9829834E3,6.4543203E3,8.4420625E3,3.0330312E3,5.3172188E3,1.4526562E3,2.477375E3,3.07325E3,4.4320312E2,9.9125E2,4.5603125E2,7.33625E2,1.364425E4,1.5925875E4,1.6892219E4,6.5731045E3,9.75375E3,6.39E3,4.9477812E3,2.661121E3,1.7476938E4,6.888453E3,1.6796156E4,8.5375E3,5.11025E3,3.084205E3,5.307883E3,9.003662E3,0E0,0E0,0E0,0E0,0E0,0E0,0E0,0E0,0E0,0E0,0E0,0E0,0E0,0E0,0E0,0E0,0E0,0E0,0E0,0E0,0E0,0E0,0E0,0E0,0E0,0E0,0E0,0E0,0E0,0E0,0E0,0E0,0E0,0E0,0E0,0E0,0E0,0E0,0E0,0E0,0E0,0E0,0E0,0E0,0E0,0E0,0E0,0E0,0E0,0E0,0E0,0E0,0E0,0E0,0E0,0E0,0E0,0E0,0E0,0E0,0E0,0E0,0E0,0E0],"parents":[2147483647,0,0,1,1,2,2,3,3,4,4,5,5,6,6,7,7,8,8,9,9,10,10,11,11,12,12,13,13,14,14,15,15,16,16,17,17,18,18,19,19,20,20,21,21,22,22,23,23,24,24,25,25,26,26,27,27,28,28,29,29,30,30,31,31,32,32,33,33,34,34,35,35,36,36,37,37,38,38,39,39,40,40,41,41,42,42,43,43,44,44,45,45,46,46,47,47,48,48,49,49,50,50,51,51,52,52,53,53,54,54,55,55,56,56,57,57,58,58,59,59,60,60,61,61,62,62],"right_children":[2,4,6,8,10,12,14,16,18,20,22,24,26,28,30,32,34,36,38,40,42,44,46,48,50,52,54,56,58,60,62,64,66,68,70,72,74,76,78,80,82,84,86,88,90,92,94,96,98,100,102,104,106,108,110,112,114,116,118,120,122,124,126,-1,-1,-1,-1,-1,-1,-1,-1,-1,-1,-1,-1,-1,-1,-1,-1,-1,-1,-1,-1,-1,-1,-1,-1,-1,-1,-1,-1,-1,-1,-1,-1,-1,-1,-1,-1,-1,-1,-1,-1,-1,-1,-1,-1,-1,-1,-1,-1,-1,-1,-1,-1,-1,-1,-1,-1,-1,-1,-1,-1,-1,-1,-1,-1],"split_conditions":[1E0,9.8E-1,1.03E0,6.3E-1,2.59E1,2E0,2E0,1.42E1,1.91E1,1.89E1,3.15E1,1.86E1,1.97E1,1.55E0,2.3E1,4.2E-1,1.94E1,1.42E1,2.57E1,1.22E0,1.21E0,1.23E0,1.23E0,5.9E-1,2.49E1,6.7E-1,2.54E1,2.8E1,3.01E1,1.59E0,1.49E0,9.3E0,9.3E0,4.2E-1,2.36E1,7.9E-1,7.9E-1,8E-1,3.27E1,1.3E1,1.19E1,2.22E1,2.16E1,2.83E1,2.77E1,3.42E1,3.45E1,1.18E1,1.2E1,5.9E-1,3.45E1,1.38E1,1.23E1,5.5E-1,3.5E1,1.84E1,3.73E1,1.94E1,3.62E1,1.34E1,2.11E0,3.03E1,3.03E1,-6.804225E-1,-3.8479063E-1,-3.9582452E-1,-1.407478E-1,-1.9752494E-1,6.4238064E-2,2.0063296E-1,4.744831E-1,2.7302245E-2,2.3331235E-1,2.602559E-1,4.3784213E-1,4.676396E-1,6.821713E-1,9.0442276E-1,1.1545514E0,4.277505E-1,6.605082E-1,5.495175E-1,8.738912E-1,8.179102E-1,9.773876E-1,1.0145129E0,1.1681162E0,1.0717504E0,1.2238322E0,1.2729199E0,1.3848351E0,1.3009704E0,1.4407073E0,1.5228744E0,1.605094E0,-7.6241475E-1,-5.51943E-1,-5.2397054E-1,-3.203158E-1,-3.8718387E-1,-1.384102E-1,6.1075833E-2,3.7827376E-1,-8.5518783E-1,-7.11652E-1,-7.3804873E-1,-5.947559E-1,-6.411473E-1,-4.8106432E-1,-3.3763433E-1,-1.3740782E-1,-1.10214606E-1,1.3883969E-1,4.0628186E-1,7.0536846E-1,2.845159E-1,6.076495E-1,8.211957E-1,1.0984609E0,-6.177214E-1,-4.2228365E-1,-2.54289E-1,-5.984474E-2,-2.6690632E-1,-8.444054E-2,-3.655263E-2,1.676677E-1],"split_indices":[1,5,5,5,6,1,1,6,6,6,6,6,6,5,6,5,6,6,6,5,5,5,5,5,6,5,6,6,6,5,5,6,6,5,6,5,5,5,6,6,6,6,6,6,6,6,6,6,6,5,6,6,6,5,6,6,6,6,6,6,5,6,6,0,0,0,0,0,0,0,0,0,0,0,0,0,0,0,0,0,0,0,0,0,0,0,0,0,0,0,0,0,0,0,0,0,0,0,0,0,0,0,0,0,0,0,0,0,0,0,0,0,0,0,0,0,0,0,0,0,0,0,0,0,0,0,0],"split_type":[0,0,0,0,0,0,0,0,0,0,0,0,0,0,0,0,0,0,0,0,0,0,0,0,0,0,0,0,0,0,0,0,0,0,0,0,0,0,0,0,0,0,0,0,0,0,0,0,0,0,0,0,0,0,0,0,0,0,0,0,0,0,0,0,0,0,0,0,0,0,0,0,0,0,0,0,0,0,0,0,0,0,0,0,0,0,0,0,0,0,0,0,0,0,0,0,0,0,0,0,0,0,0,0,0,0,0,0,0,0,0,0,0,0,0,0,0,0,0,0,0,0,0,0,0,0,0],"sum_hessian":[2.31264E5,7.7149E4,1.54115E5,4.5618E4,3.1531E4,9.7918E4,5.6197E4,2.0268E4,2.535E4,1.8197E4,1.3334E4,4.8834E4,4.9084E4,2.8219E4,2.7978E4,8.666E3,1.1602E4,1.5967E4,9.383E3,8.479E3,9.718E3,5.223E3,8.111E3,3.2216E4,1.6618E4,3.4641E4,1.4443E4,1.573E4,1.2489E4,1.2777E4,1.5201E4,2.664E3,6.002E3,7.85E3,3.752E3,7.752E3,8.215E3,7.372E3,2.011E3,5.143E3,3.336E3,4.035E3,5.683E3,9.93E2,4.23E3,1.651E3,6.46E3,1.3693E4,1.8523E4,1.3091E4,3.527E3,1.9066E4,1.5575E4,1.1021E4,3.422E3,1.1396E4,4.334E3,7.659E3,4.83E3,8.603E3,4.174E3,6.379E3,8.822E3,5.41E2,2.123E3,1.005E3,4.997E3,2.18E3,5.67E3,3.032E3,7.2E2,4.542E3,3.21E3,4.286E3,3.929E3,3.566E3,3.806E3,1.065E3,9.46E2,1.333E3,3.81E3,1.51E2,3.185E3,2.142E3,1.893E3,2.226E3,3.457E3,4.91E2,5.02E2,1.398E3,2.832E3,4.64E2,1.187E3,2.206E3,4.254E3,4.705E3,8.988E3,5.441E3,1.3082E4,3.879E3,9.212E3,2.662E3,8.65E2,9.289E3,9.777E3,4.341E3,1.1234E4,2.514E3,8.507E3,2.518E3,9.04E2,5.095E3,6.301E3,3.329E3,1.005E3,2.303E3,5.356E3,3.061E3,1.769E3,1.665E3,6.938E3,3.061E3,1.113E3,3.209E3,3.17E3,3.767E3,5.055E3],"tree_param":{"num_deleted":"0","num_feature":"12","num_nodes":"127","size_leaf_vector":"1"}},{"base_weights":[7.758523E-4,5.1145597E0,-2.5591686E0,9.3051E-1,9.149022E0,-4.779484E0,5.3453445E-1,-3.2578915E-1,3.3999488E0,6.4883933E0,1.2179533E1,-3.5931854E0,-5.964038E0,3.006683E0,-1.9417036E0,-2.1442072E0,9.100319E-1,1.2789842E0,4.543878E0,4.978639E0,8.1696E0,1.0398621E1,1.3367642E1,-4.85889E0,-2.1320791E0,-6.888291E0,-4.909491E0,6.830737E-1,5.5156093E0,-3.5362592E0,-3.5039413E-1,-5.043538E0,-1.7341969E0,-7.2526646E-1,1.5027465E0,8.091896E-1,3.436679E0,3.7724838E0,6.5174255E0,3.5175457E0,6.0276184E0,6.328688E0,8.788432E0,8.317876E0,1.1145042E1,1.1117188E1,1.3745757E1,-6.992368E0,-4.356323E0,-2.8412194E0,-6.2985115E-2,-8.189724E0,-6.5864973E0,-5.33685E0,-3.3953235E0,-7.0390093E-1,2.6853464E0,4.256374E0,8.159983E0,-4.1827908E0,-1.7724704E0,-1.7400368E0,6.6606534E-1,-7.411019E-1,-4.515091E-1,-3.1677327E-1,-9.856385E-2,-2.6576003E-1,-2.8855577E-2,5.195382E-2,2.0726351E-1,-1.5168788E-1,1.2205517E-1,2.8063554E-1,4.8784733E-1,3.120681E-1,4.5061308E-1,5.2578074E-1,7.6261604E-1,1.859202E-1,3.971266E-1,5.480694E-1,7.14169E-1,3.9703226E-1,6.698009E-1,8.108323E-1,9.411263E-1,8.080578E-1,9.1230243E-1,1.0065103E0,1.1391366E0,1.0189052E0,1.1772426E0,1.2807465E0,1.4162875E0,-8.886237E-1,-6.519447E-1,-6.316988E-1,-4.028166E-1,-5.016986E-1,-2.440422E-1,-5.6111734E-2,2.4991575E-1,-9.34315E-1,-7.87004E-1,-7.9339933E-1,-6.3475126E-1,-6.589717E-1,-5.04994E-1,-3.7862155E-1,-1.859362E-1,-2.7183267E-1,-3.4717333E-2,1.557505E-1,4.0313187E-1,3.4378514E-1,6.842297E-1,7.412011E-1,1.0704335E0,-5.197973E-1,-3.7202215E-1,-2.906939E-1,-1.1779614E-1,-2.1111917E-1,7.4861757E-3,1.3037162E-2,2.4095833E-1],"categories":[],"categories_nodes":[],"categories_segments":[],"categories_sizes":[],"default_left":[0,0,0,0,0,0,0,0,0,0,0,0,0,0,0,0,0,0,0,0,0,0,0,0,0,0,0,0,0,0,0,0,0,0,0,0,0,0,0,0,0,0,0,0,0,0,0,0,0,0,0,0,0,0,0,0,0,0,0,0,0,0,0,0,0,0,0,0,0,0,0,0,0,0,0,0,0,0,0,0,0,0,0,0,0,0,0,0,0,0,0,0,0,0,0,0,0,0,0,0,0,0,0,0,0,0,0,0,0,0,0,0,0,0,0,0,0,0,0,0,0,0,0,0,0,0,0],"id":11,"left_children":[1,3,5,7,9,11,13,15,17,19,21,23,25,27,29,31,33,35,37,39,41,43,45,47,49,51,53,55,57,59,61,63,65,67,69,71,73,75,77,79,81,83,85,87,89,91,93,95,97,99,101,103,105,107,109,111,113,115,117,119,121,123,125,-1,-1,-1,-1,-1,-1,-1,-1,-1,-1,-1,-1,-1,-1,-1,-1,-1,-1,-1,-1,-1,-1,-1,-1,-1,-1,-1,-1,-1,-1,-1,-1,-1,-1,-1,-1,-1,-1,-1,-1,-1,-1,-1,-1,-1,-1,-1,-1,-1,-1,-1,-1,-1,-1,-1,-1,-1,-1,-1,-1,-1,-1,-1,-1],"loss_changes":[3.0275035E6,1.3023138E6,1.0586249E6,1.1749966E5,3.16614E5,1.2606025E5,3.9420194E5,5.6416652E4,3.097961E4,5.3051062E4,3.8711E4,8.2896875E4,4.3722125E4,1.8785456E5,8.163045E4,1.2066637E4,1.4488697E4,4.5344194E3,1.2605109E4,1.687325E4,1.12169375E4,1.13258125E4,9.216E3,2.572525E4,3.0535344E4,9.341625E3,1.3552719E4,4.646557E4,5.1558562E4,1.8316812E4,2.2746896E4,1.5404082E3,9.54841E3,3.3553076E3,6.1461836E3,3.5202122E3,7.1334766E2,2.8393125E3,3.2139375E3,3.460539E3,3.8696094E3,2.1447812E3,3.0595E3,2.9790625E2,1.3239375E3,8.4640625E2,3.50625E3,4.0423438E3,1.24849375E4,1.3503531E4,6.782309E3,1.5854062E3,6.2048125E3,5.8453438E3,2.7661797E3,7.1024297E3,1.0387773E4,2.2196922E4,9.430469E3,5.5021094E3,2.9048125E3,4.582717E3,8.686742E3,0E0,0E0,0E0,0E0,0E0,0E0,0E0,0E0,0E0,0E0,0E0,0E0,0E0,0E0,0E0,0E0,0E0,0E0,0E0,0E0,0E0,0E0,0E0,0E0,0E0,0E0,0E0,0E0,0E0,0E0,0E0,0E0,0E0,0E0,0E0,0E0,0E0,0E0,0E0,0E0,0E0,0E0,0E0,0E0,0E0,0E0,0E0,0E0,0E0,0E0,0E0,0E0,0E0,0E0,0E0,0E0,0E0,0E0,0E0,0E0,0E0,0E0,0E0,0E0],"parents":[2147483647,0,0,1,1,2,2,3,3,4,4,5,5,6,6,7,7,8,8,9,9,10,10,11,11,12,12,13,13,14,14,15,15,16,16,17,17,18,18,19,19,20,20,21,21,22,22,23,23,24,24,25,25,26,26,27,27,28,28,29,29,30,30,31,31,32,32,33,33,34,34,35,35,36,36,37,37,38,38,39,39,40,40,41,41,42,42,43,43,44,44,45,45,46,46,47,47,48,48,49,49,50,50,51,51,52,52,53,53,54,54,55,55,56,56,57,57,58,58,59,59,60,60,61,61,62,62],"right_children":[2,4,6,8,10,12,14,16,18,20,22,24,26,28,30,32,34,36,38,40,42,44,46,48,50,52,54,56,58,60,62,64,66,68,70,72,74,76,78,80,82,84,86,88,90,92,94,96,98,100,102,104,106,108,110,112,114,116,118,120,122,124,126,-1,-1,-1,-1,-1,-1,-1,-1,-1,-1,-1,-1,-1,-1,-1,-1,-1,-1,-1,-1,-1,-1,-1,-1,-1,-1,-1,-1,-1,-1,-1,-1,-1,-1,-1,-1,-1,-1,-1,-1,-1,-1,-1,-1,-1,-1,-1,-1,-1,-1,-1,-1,-1,-1,-1,-1,-1,-1,-1,-1,-1,-1,-1,-1],"split_conditions":[1E0,8.6E-1,9.6E-1,1.79E1,2.33E1,2E0,2E0,5.5E-1,5.8E-1,1.11E0,2.92E1,1.65E1,1.68E1,1.38E0,2.33E1,3.1E-1,1.15E1,2.28E1,2.31E1,1.61E1,1.62E1,1.08E0,1.08E0,4.4E-1,2.27E1,1.02E1,2.35E1,2.23E1,3.15E1,1.59E0,1.43E0,9.8E0,1.19E1,8.6E0,6.5E-1,3.6E-1,2.49E1,7.3E-1,7.5E-1,1.12E1,1.02E0,1.12E1,1.97E1,2.64E1,1.24E0,3.42E1,3.27E1,9.6E0,9.7E0,4.5E-1,3.21E1,4.4E-1,4.2E-1,4.8E-1,3.27E1,1.24E1,2.98E1,2.09E0,2.11E0,1.5E1,1.75E1,3.65E1,2.1E0,-7.411019E-1,-4.515091E-1,-3.1677327E-1,-9.856385E-2,-2.6576003E-1,-2.8855577E-2,5.195382E-2,2.0726351E-1,-1.5168788E-1,1.2205517E-1,2.8063554E-1,4.8784733E-1,3.120681E-1,4.5061308E-1,5.2578074E-1,7.6261604E-1,1.859202E-1,3.971266E-1,5.480694E-1,7.14169E-1,3.9703226E-1,6.698009E-1,8.108323E-1,9.411263E-1,8.080578E-1,9.1230243E-1,1.0065103E0,1.1391366E0,1.0189052E0,1.1772426E0,1.2807465E0,1.4162875E0,-8.886237E-1,-6.519447E-1,-6.316988E-1,-4.028166E-1,-5.016986E-1,-2.440422E-1,-5.6111734E-2,2.4991575E-1,-9.34315E-1,-7.87004E-1,-7.9339933E-1,-6.3475126E-1,-6.589717E-1,-5.04994E-1,-3.7862155E-1,-1.859362E-1,-2.7183267E-1,-3.4717333E-2,1.557505E-1,4.0313187E-1,3.4378514E-1,6.842297E-1,7.412011E-1,1.0704335E0,-5.197973E-1,-3.7202215E-1,-2.906939E-1,-1.1779614E-1,-2.1111917E-1,7.4861757E-3,1.3037162E-2,2.4095833E-1],"split_indices":[1,5,5,6,6,1,1,5,5,5,6,6,6,5,6,5,6,6,6,6,6,5,5,5,6,6,6,6,6,5,5,6,6,6,5,5,6,5,5,6,5,6,6,6,5,6,6,6,6,5,6,5,5,5,6,6,6,5,5,6,6,6,5,0,0,0,0,0,0,0,0,0,0,0,0,0,0,0,0,0,0,0,0,0,0,0,0,0,0,0,0,0,0,0,0,0,0,0,0,0,0,0,0,0,0,0,0,0,0,0,0,0,0,0,0,0,0,0,0,0,0,0,0,0,0,0,0],"split_type":[0,0,0,0,0,0,0,0,0,0,0,0,0,0,0,0,0,0,0,0,0,0,0,0,0,0,0,0,0,0,0,0,0,0,0,0,0,0,0,0,0,0,0,0,0,0,0,0,0,0,0,0,0,0,0,0,0,0,0,0,0,0,0,0,0,0,0,0,0,0,0,0,0,0,0,0,0,0,0,0,0,0,0,0,0,0,0,0,0,0,0,0,0,0,0,0,0,0,0,0,0,0,0,0,0,0,0,0,0,0,0,0,0,0,0,0,0,0,0,0,0,0,0,0,0,0,0],"sum_hessian":[2.31264E5,7.7149E4,1.54115E5,3.7873E4,3.9276E4,8.9722E4,6.4393E4,2.5103E4,1.277E4,2.0916E4,1.836E4,4.483E4,4.4892E4,3.2223E4,3.217E4,1.0157E4,1.4946E4,4.475E3,8.295E3,1.1022E4,9.894E3,7.351E3,1.1009E4,2.402E4,2.081E4,2.3921E4,2.0971E4,1.673E4,1.5493E4,1.6068E4,1.6102E4,1.257E3,8.9E3,3.976E3,1.097E4,3.676E3,7.99E2,5.966E3,2.329E3,4.608E3,6.414E3,2.492E3,7.402E3,1.944E3,5.407E3,1.588E3,9.421E3,4.577E3,1.9443E4,1.5498E4,5.312E3,4.498E3,1.9423E4,1.6353E4,4.618E3,9.884E3,6.846E3,1.0497E4,4.996E3,1.1757E4,4.311E3,6.802E3,9.3E3,2.27E2,1.03E3,3.052E3,5.848E3,7.32E2,3.244E3,4.026E3,6.944E3,5.52E2,3.124E3,5.58E2,2.41E2,3.162E3,2.804E3,1.093E3,1.236E3,9.91E2,3.617E3,4.306E3,2.108E3,3.39E2,2.153E3,3.545E3,3.857E3,1.51E3,4.34E2,1.012E3,4.395E3,6.64E2,9.24E2,2.909E3,6.512E3,9.11E2,3.666E3,2.785E3,1.6658E4,2.409E3,1.3089E4,4.448E3,8.64E2,9.7E2,3.528E3,2.921E3,1.6502E4,3.043E3,1.331E4,3.68E3,9.38E2,1.486E3,8.398E3,3.726E3,3.12E3,7.975E3,2.522E3,3.864E3,1.132E3,3.677E3,8.08E3,1.481E3,2.83E3,5.647E3,1.155E3,7.115E3,2.185E3],"tree_param":{"num_deleted":"0","num_feature":"12","num_nodes":"127","size_leaf_vector":"1"}},{"base_weights":[7.34419E-4,4.603292E0,-2.3032918E0,1.571877E0,9.125398E0,-4.3730917E0,3.898555E-1,-5.653938E-2,3.8123448E0,7.137128E0,1.1792877E1,-3.320484E0,-5.4240537E0,2.589735E0,-1.8136517E0,-1.571647E0,1.2611752E0,2.7526069E0,6.9437795E0,5.926625E0,8.460953E0,1.0743908E1,1.2588647E1,-4.172757E0,-1.6343067E0,-6.252465E0,-4.5091586E0,9.671526E-1,5.616993E0,-2.865258E0,2.1884462E-1,-2.747169E0,-5.190595E-1,-6.517349E-1,1.9333842E0,1.6726838E0,3.9151955E0,6.1027555E0,9.080771E0,5.051884E0,7.1278753E0,7.5020385E0,9.120466E0,9.430694E0,1.1023764E1,1.1492481E1,1.2867088E1,-6.1822743E0,-3.749008E0,-2.2975624E0,-9.500135E-3,-7.5603585E0,-6.0100436E0,-4.8987675E0,-3.2718732E0,-1.7612742E-1,3.363054E0,2.9756744E0,6.7790537E0,-3.6470387E0,-1.5308514E0,-4.297778E-1,1.943166E0,-5.297228E-1,-2.378866E-1,-2.0661883E-1,-9.7859325E-3,-3.0758154E-1,-2.6313478E-2,1.3405527E-1,3.3275592E-1,-2.89764E-2,2.0379655E-1,3.305889E-1,4.463799E-1,5.2569324E-1,6.6608423E-1,7.135767E-1,9.404662E-1,3.772412E-1,5.611264E-1,5.7624E-1,7.378501E-1,6.975569E-1,8.149392E-1,8.5956824E-1,9.6681255E-1,8.6117333E-1,9.8906994E-1,1.0624523E0,1.1586982E0,1.0722207E0,1.1764641E0,1.2463765E0,1.3053935E0,-7.885554E-1,-5.7379687E-1,-4.928491E-1,-3.2511553E-1,-4.0487033E-1,-1.9106208E-1,-1.824868E-1,5.6555726E-2,-8.6350536E-1,-7.286211E-1,-6.871642E-1,-5.699875E-1,-6.144702E-1,-4.6738097E-1,-4.4094983E-1,-2.8613454E-1,-1.1525424E-1,7.6068446E-2,2.760866E-1,5.6213266E-1,2.2273648E-1,5.1518506E-1,6.169478E-1,9.3904513E-1,-4.3614516E-1,-2.925596E-1,-2.0263974E-1,-2.4677847E-2,-7.886907E-2,1.1879983E-1,1.3809763E-1,3.3105895E-1],"categories":[],"categories_nodes":[],"categories_segments":[],"categories_sizes":[],"default_left":[0,0,0,0,0,0,0,0,0,0,0,0,0,0,0,0,0,0,0,0,0,0,0,0,0,0,0,0,0,0,0,0,0,0,0,0,0,0,0,0,0,0,0,0,0,0,0,0,0,0,0,0,0,0,0,0,0,0,0,0,0,0,0,0,0,0,0,0,0,0,0,0,0,0,0,0,0,0,0,0,0,0,0,0,0,0,0,0,0,0,0,0,0,0,0,0,0,0,0,0,0,0,0,0,0,0,0,0,0,0,0,0,0,0,0,0,0,0,0,0,0,0,0,0,0,0,0],"id":12,"left_children":[1,3,5,7,9,11,13,15,17,19,21,23,25,27,29,31,33,35,37,39,41,43,45,47,49,51,53,55,57,59,61,63,65,67,69,71,73,75,77,79,81,83,85,87,89,91,93,95,97,99,101,103,105,107,109,111,113,115,117,119,121,123,125,-1,-1,-1,-1,-1,-1,-1,-1,-1,-1,-1,-1,-1,-1,-1,-1,-1,-1,-1,-1,-1,-1,-1,-1,-1,-1,-1,-1,-1,-1,-1,-1,-1,-1,-1,-1,-1,-1,-1,-1,-1,-1,-1,-1,-1,-1,-1,-1,-1,-1,-1,-1,-1,-1,-1,-1,-1,-1,-1,-1,-1,-1,-1,-1],"loss_changes":[2.4524405E6,1.0575871E6,8.590869E5,1.6851681E5,1.6412825E5,9.6383875E4,3.246578E5,5.340581E4,6.4495875E4,2.838125E4,1.0900875E4,6.2563812E4,3.301975E4,1.6461945E5,7.151755E4,1.5394797E4,1.8398281E4,1.8232188E4,8.778109E3,9.705781E3,5.2894375E3,1.9945E3,2.144875E3,2.4603969E4,1.5755402E4,7.2091875E3,9.974094E3,5.9772375E4,3.5876125E4,2.2998312E4,1.2762162E4,5.5079805E3,4.2785376E3,3.5043647E3,8.745809E3,5.400592E3,2.3234453E3,1.6312969E3,8.0602344E2,3.8207812E3,1.2935156E3,1.1216719E3,1.3582188E3,2.953203E2,9.339375E2,1.948125E2,2.880625E2,3.7651094E3,1.4010625E4,7.027E3,4.4262964E3,9.900781E2,5.12075E3,4.3882812E3,2.3066406E3,1.3513992E4,9.570445E3,5.810248E3,1.28694375E4,7.1534688E3,5.184213E3,4.8156084E3,2.393163E3,0E0,0E0,0E0,0E0,0E0,0E0,0E0,0E0,0E0,0E0,0E0,0E0,0E0,0E0,0E0,0E0,0E0,0E0,0E0,0E0,0E0,0E0,0E0,0E0,0E0,0E0,0E0,0E0,0E0,0E0,0E0,0E0,0E0,0E0,0E0,0E0,0E0,0E0,0E0,0E0,0E0,0E0,0E0,0E0,0E0,0E0,0E0,0E0,0E0,0E0,0E0,0E0,0E0,0E0,0E0,0E0,0E0,0E0,0E0,0E0,0E0,0E0,0E0,0E0],"parents":[2147483647,0,0,1,1,2,2,3,3,4,4,5,5,6,6,7,7,8,8,9,9,10,10,11,11,12,12,13,13,14,14,15,15,16,16,17,17,18,18,19,19,20,20,21,21,22,22,23,23,24,24,25,25,26,26,27,27,28,28,29,29,30,30,31,31,32,32,33,33,34,34,35,35,36,36,37,37,38,38,39,39,40,40,41,41,42,42,43,43,44,44,45,45,46,46,47,47,48,48,49,49,50,50,51,51,52,52,53,53,54,54,55,55,56,56,57,57,58,58,59,59,60,60,61,61,62,62],"right_children":[2,4,6,8,10,12,14,16,18,20,22,24,26,28,30,32,34,36,38,40,42,44,46,48,50,52,54,56,58,60,62,64,66,68,70,72,74,76,78,80,82,84,86,88,90,92,94,96,98,100,102,104,106,108,110,112,114,116,118,120,122,124,126,-1,-1,-1,-1,-1,-1,-1,-1,-1,-1,-1,-1,-1,-1,-1,-1,-1,-1,-1,-1,-1,-1,-1,-1,-1,-1,-1,-1,-1,-1,-1,-1,-1,-1,-1,-1,-1,-1,-1,-1,-1,-1,-1,-1,-1,-1,-1,-1,-1,-1,-1,-1,-1,-1,-1,-1,-1,-1,-1,-1,-1,-1,-1,-1],"split_conditions":[1E0,9.9E-1,9.4E-1,7.1E-1,2.59E1,2E0,2E0,1.48E1,2.18E1,1.96E1,3.21E1,1.83E1,1.66E1,1.6E0,2.77E1,5.2E-1,4.6E-1,1.6E1,2.89E1,1.22E0,1.22E0,1.22E0,1.24E0,4.3E-1,2.32E1,9.8E0,2.3E1,2.52E1,2.23E1,1.37E0,1.93E0,8.8E0,1E1,3E-1,2.05E1,1.01E1,8.3E-1,8.3E-1,8E-1,1.37E1,1.45E1,2.27E1,2.27E1,2.77E1,2.95E1,3.45E1,3.47E1,1E1,1.17E1,4.8E-1,6.3E-1,4.3E-1,4.9E-1,4.5E-1,6.5E-1,1.81E1,3.68E1,2.15E0,2.17E0,1.85E1,2.04E0,3.76E1,3.62E1,-5.297228E-1,-2.378866E-1,-2.0661883E-1,-9.7859325E-3,-3.0758154E-1,-2.6313478E-2,1.3405527E-1,3.3275592E-1,-2.89764E-2,2.0379655E-1,3.305889E-1,4.463799E-1,5.2569324E-1,6.6608423E-1,7.135767E-1,9.404662E-1,3.772412E-1,5.611264E-1,5.7624E-1,7.378501E-1,6.975569E-1,8.149392E-1,8.5956824E-1,9.6681255E-1,8.6117333E-1,9.8906994E-1,1.0624523E0,1.1586982E0,1.0722207E0,1.1764641E0,1.2463765E0,1.3053935E0,-7.885554E-1,-5.7379687E-1,-4.928491E-1,-3.2511553E-1,-4.0487033E-1,-1.9106208E-1,-1.824868E-1,5.6555726E-2,-8.6350536E-1,-7.286211E-1,-6.871642E-1,-5.699875E-1,-6.144702E-1,-4.6738097E-1,-4.4094983E-1,-2.8613454E-1,-1.1525424E-1,7.6068446E-2,2.760866E-1,5.6213266E-1,2.2273648E-1,5.1518506E-1,6.169478E-1,9.3904513E-1,-4.3614516E-1,-2.925596E-1,-2.0263974E-1,-2.4677847E-2,-7.886907E-2,1.1879983E-1,1.3809763E-1,3.3105895E-1],"split_indices":[1,5,5,5,6,1,1,6,6,6,6,6,6,5,6,5,5,6,6,5,5,5,5,5,6,6,6,6,6,5,5,6,6,5,6,6,5,5,5,6,6,6,6,6,6,6,6,6,6,5,5,5,5,5,5,6,6,5,5,6,5,6,6,0,0,0,0,0,0,0,0,0,0,0,0,0,0,0,0,0,0,0,0,0,0,0,0,0,0,0,0,0,0,0,0,0,0,0,0,0,0,0,0,0,0,0,0,0,0,0,0,0,0,0,0,0,0,0,0,0,0,0,0,0,0,0,0],"split_type":[0,0,0,0,0,0,0,0,0,0,0,0,0,0,0,0,0,0,0,0,0,0,0,0,0,0,0,0,0,0,0,0,0,0,0,0,0,0,0,0,0,0,0,0,0,0,0,0,0,0,0,0,0,0,0,0,0,0,0,0,0,0,0,0,0,0,0,0,0,0,0,0,0,0,0,0,0,0,0,0,0,0,0,0,0,0,0,0,0,0,0,0,0,0,0,0,0,0,0,0,0,0,0,0,0,0,0,0,0,0,0,0,0,0,0,0,0,0,0,0,0,0,0,0,0,0,0],"sum_hessian":[2.31264E5,7.7149E4,1.54115E5,4.6188E4,3.0961E4,8.7142E4,6.6973E4,2.6748E4,1.944E4,1.7741E4,1.322E4,4.3539E4,4.3603E4,3.3514E4,3.3459E4,1.2442E4,1.4306E4,1.4526E4,4.914E3,9.27E3,8.471E3,5.709E3,7.511E3,2.892E4,1.4619E4,2.288E4,2.0723E4,2.182E4,1.1694E4,2.205E4,1.1409E4,5.877E3,6.565E3,3.72E3,1.0586E4,7.532E3,6.994E3,3.529E3,1.385E3,5.367E3,3.903E3,3.457E3,5.014E3,1.009E3,4.7E3,1.53E3,5.981E3,5.034E3,2.3886E4,1.0381E4,4.238E3,3.573E3,1.9307E4,1.5758E4,4.965E3,1.4772E4,7.048E3,3.574E3,8.12E3,1.3903E4,8.147E3,8.291E3,3.118E3,7.4E2,5.137E3,1.404E3,5.161E3,5.13E2,3.207E3,7.429E3,3.157E3,1.182E3,6.35E3,3.317E3,3.677E3,1.407E3,2.122E3,2.01E2,1.184E3,1.635E3,3.732E3,6.09E2,3.294E3,1.913E3,1.544E3,2.569E3,2.445E3,3.7E2,6.39E2,2.762E3,1.938E3,4.1E2,1.12E3,1.915E3,4.066E3,1.038E3,3.996E3,7.087E3,1.6799E4,1.877E3,8.504E3,1.019E3,3.219E3,7.2E2,2.853E3,5.105E3,1.4202E4,2.406E3,1.3352E4,1.314E3,3.651E3,7.233E3,7.539E3,5.566E3,1.482E3,2.661E3,9.13E2,6.586E3,1.534E3,6.983E3,6.92E3,5.878E3,2.269E3,6.786E3,1.505E3,2.211E3,9.07E2],"tree_param":{"num_deleted":"0","num_feature":"12","num_nodes":"127","size_leaf_vector":"1"}},{"base_weights":[7.149456E-4,4.143188E0,-2.0729945E0,7.4689347E-1,7.4180593E0,-3.21794E0,1.8995928E0,-5.0127673E-1,2.444492E0,5.2437825E0,9.8502035E0,-4.397641E0,-1.867586E0,4.219974E0,-4.498806E-1,-1.6531718E0,7.4836266E-1,6.2496877E-1,3.4106097E0,3.6528068E0,6.311189E0,8.26401E0,1.0741598E1,-3.5560563E0,-5.248871E0,-3.9933327E-1,-3.3049376E0,2.647068E0,5.788591E0,-1.4230231E0,9.2494184E-1,-3.7514331E0,-1.232857E0,-8.078566E-1,1.1398393E0,1.8845032E-1,2.3618937E0,2.799747E0,5.1381693E0,2.770899E0,4.7833743E0,4.8166666E0,6.9056273E0,6.6722655E0,8.899375E0,8.964291E0,1.1053989E1,-4.545245E0,-2.5992491E0,-5.9986796E0,-4.598549E0,-1.4016275E0,1.3879768E0,-3.9763854E0,-1.9512019E0,1.5927328E0,4.152477E0,4.771942E0,7.396035E0,-2.4543698E0,-8.4348184E-1,3.4399414E-1,2.0701642E0,-5.686619E-1,-3.1982288E-1,-3.0048415E-1,-8.402957E-2,-2.4152659E-1,-4.455092E-2,8.572218E-2,1.9354704E-1,-1.8074831E-1,5.558346E-2,1.7242853E-1,3.705126E-1,2.3508115E-1,3.5516077E-1,4.5902658E-1,7.021196E-1,1.2894943E-1,3.1100896E-1,4.480155E-1,5.3000706E-1,2.7971873E-1,5.1391834E-1,6.187912E-1,7.3940843E-1,6.474283E-1,7.2796565E-1,8.11051E-1,9.0992874E-1,7.9998755E-1,9.5018065E-1,1.0182761E0,1.1447042E0,-6.4843076E-1,-4.2159373E-1,-4.60505E-1,-2.3041081E-1,-7.14927E-1,-5.777879E-1,-5.8237016E-1,-4.4057298E-1,-2.821524E-1,-1.0250419E-1,7.690634E-2,3.0647522E-1,-4.9802634E-1,-3.6843696E-1,-2.5111037E-1,-1.09430924E-1,4.386015E-2,2.4641417E-1,2.2149901E-1,5.0072074E-1,4.1510835E-1,6.964963E-1,6.6851103E-1,9.290744E-1,-2.8140727E-1,-9.555276E-2,-1.3808368E-1,2.6543904E-2,-1.9321335E-4,1.6382615E-1,1.6480294E-1,3.4531447E-1],"categories":[],"categories_nodes":[],"categories_segments":[],"categories_sizes":[],"default_left":[0,0,0,0,0,0,0,0,0,0,0,0,0,0,0,0,0,0,0,0,0,0,0,0,0,0,0,0,0,0,0,0,0,0,0,0,0,0,0,0,0,0,0,0,0,0,0,0,0,0,0,0,0,0,0,0,0,0,0,0,0,0,0,0,0,0,0,0,0,0,0,0,0,0,0,0,0,0,0,0,0,0,0,0,0,0,0,0,0,0,0,0,0,0,0,0,0,0,0,0,0,0,0,0,0,0,0,0,0,0,0,0,0,0,0,0,0,0,0,0,0,0,0,0,0,0,0],"id":13,"left_children":[1,3,5,7,9,11,13,15,17,19,21,23,25,27,29,31,33,35,37,39,41,43,45,47,49,51,53,55,57,59,61,63,65,67,69,71,73,75,77,79,81,83,85,87,89,91,93,95,97,99,101,103,105,107,109,111,113,115,117,119,121,123,125,-1,-1,-1,-1,-1,-1,-1,-1,-1,-1,-1,-1,-1,-1,-1,-1,-1,-1,-1,-1,-1,-1,-1,-1,-1,-1,-1,-1,-1,-1,-1,-1,-1,-1,-1,-1,-1,-1,-1,-1,-1,-1,-1,-1,-1,-1,-1,-1,-1,-1,-1,-1,-1,-1,-1,-1,-1,-1,-1,-1,-1,-1,-1,-1],"loss_changes":[1.986641E6,8.5808975E5,7.009866E5,8.025215E4,2.0765125E5,1.9057375E5,1.8798106E5,3.1420188E4,2.8208219E4,3.5197938E4,2.6122625E4,4.572375E4,1.1772709E5,4.2787156E4,2.2924863E4,1.0012334E4,6.379491E3,4.220453E3,1.1047281E4,8.292219E3,1.09926875E4,6.6902812E3,6.4885E3,3.0380062E4,1.5450375E4,4.94395E4,2.5614969E4,1.37449375E4,1.41578125E4,5.9947344E3,4.7243496E3,2.0105117E3,6.580754E3,1.2249613E3,1.8795127E3,3.2640767E3,9.511289E2,2.606211E3,2.791586E3,2.3485938E3,5.479453E2,2.2880234E3,3.06625E3,1.823125E2,6.78E2,8.462031E2,3.337625E3,1.00534375E4,9.6536875E3,3.703375E3,3.9910312E3,9.451898E3,1.028826E4,5.5051875E3,4.4821914E3,5.125076E3,5.897617E3,7.2186484E3,4.467828E3,1.9430586E3,3.8289219E3,2.1101128E3,1.3896016E3,0E0,0E0,0E0,0E0,0E0,0E0,0E0,0E0,0E0,0E0,0E0,0E0,0E0,0E0,0E0,0E0,0E0,0E0,0E0,0E0,0E0,0E0,0E0,0E0,0E0,0E0,0E0,0E0,0E0,0E0,0E0,0E0,0E0,0E0,0E0,0E0,0E0,0E0,0E0,0E0,0E0,0E0,0E0,0E0,0E0,0E0,0E0,0E0,0E0,0E0,0E0,0E0,0E0,0E0,0E0,0E0,0E0,0E0,0E0,0E0,0E0,0E0,0E0,0E0],"parents":[2147483647,0,0,1,1,2,2,3,3,4,4,5,5,6,6,7,7,8,8,9,9,10,10,11,11,12,12,13,13,14,14,15,15,16,16,17,17,18,18,19,19,20,20,21,21,22,22,23,23,24,24,25,25,26,26,27,27,28,28,29,29,30,30,31,31,32,32,33,33,34,34,35,35,36,36,37,37,38,38,39,39,40,40,41,41,42,42,43,43,44,44,45,45,46,46,47,47,48,48,49,49,50,50,51,51,52,52,53,53,54,54,55,55,56,56,57,57,58,58,59,59,60,60,61,61,62,62],"right_children":[2,4,6,8,10,12,14,16,18,20,22,24,26,28,30,32,34,36,38,40,42,44,46,48,50,52,54,56,58,60,62,64,66,68,70,72,74,76,78,80,82,84,86,88,90,92,94,96,98,100,102,104,106,108,110,112,114,116,118,120,122,124,126,-1,-1,-1,-1,-1,-1,-1,-1,-1,-1,-1,-1,-1,-1,-1,-1,-1,-1,-1,-1,-1,-1,-1,-1,-1,-1,-1,-1,-1,-1,-1,-1,-1,-1,-1,-1,-1,-1,-1,-1,-1,-1,-1,-1,-1,-1,-1,-1,-1,-1,-1,-1,-1,-1,-1,-1,-1,-1,-1,-1,-1,-1,-1,-1],"split_conditions":[1E0,8.6E-1,1.3E0,1.67E1,2.32E1,7.7E-1,2E0,6E-1,5.7E-1,1.04E0,2.83E1,2E0,2E0,2.67E1,2.92E1,3.5E-1,1.05E1,2.18E1,2.27E1,1.77E1,1.62E1,1.08E0,1.09E0,1.52E1,1.51E1,2.16E1,2.25E1,1.86E0,1.93E0,1.92E1,1.98E0,2.5E-1,1.01E1,8.1E0,7.8E-1,3.5E-1,2.42E1,7.5E-1,3.23E1,1.14E1,2.1E1,1.1E1,1.24E0,1.03E0,1.24E0,3.3E1,3.21E1,3.8E-1,4E-1,9.4E0,4.1E-1,1.25E1,3.21E1,1.28E1,2.98E1,1.99E1,1.84E1,3.71E1,3.62E1,2.1E0,1.97E0,3.76E1,3.73E1,-5.686619E-1,-3.1982288E-1,-3.0048415E-1,-8.402957E-2,-2.4152659E-1,-4.455092E-2,8.572218E-2,1.9354704E-1,-1.8074831E-1,5.558346E-2,1.7242853E-1,3.705126E-1,2.3508115E-1,3.5516077E-1,4.5902658E-1,7.021196E-1,1.2894943E-1,3.1100896E-1,4.480155E-1,5.3000706E-1,2.7971873E-1,5.1391834E-1,6.187912E-1,7.3940843E-1,6.474283E-1,7.2796565E-1,8.11051E-1,9.0992874E-1,7.9998755E-1,9.5018065E-1,1.0182761E0,1.1447042E0,-6.4843076E-1,-4.2159373E-1,-4.60505E-1,-2.3041081E-1,-7.14927E-1,-5.777879E-1,-5.8237016E-1,-4.4057298E-1,-2.821524E-1,-1.0250419E-1,7.690634E-2,3.0647522E-1,-4.9802634E-1,-3.6843696E-1,-2.5111037E-1,-1.09430924E-1,4.386015E-2,2.4641417E-1,2.2149901E-1,5.0072074E-1,4.1510835E-1,6.964963E-1,6.6851103E-1,9.290744E-1,-2.8140727E-1,-9.555276E-2,-1.3808368E-1,2.6543904E-2,-1.9321335E-4,1.6382615E-1,1.6480294E-1,3.4531447E-1],"split_indices":[1,5,5,6,6,5,1,5,5,5,6,1,1,6,6,5,6,6,6,6,6,5,5,6,6,6,6,5,5,6,5,5,6,6,5,5,6,5,7,6,6,6,5,5,5,6,6,5,5,6,5,6,6,6,6,6,6,6,6,5,5,6,6,0,0,0,0,0,0,0,0,0,0,0,0,0,0,0,0,0,0,0,0,0,0,0,0,0,0,0,0,0,0,0,0,0,0,0,0,0,0,0,0,0,0,0,0,0,0,0,0,0,0,0,0,0,0,0,0,0,0,0,0,0,0,0,0],"split_type":[0,0,0,0,0,0,0,0,0,0,0,0,0,0,0,0,0,0,0,0,0,0,0,0,0,0,0,0,0,0,0,0,0,0,0,0,0,0,0,0,0,0,0,0,0,0,0,0,0,0,0,0,0,0,0,0,0,0,0,0,0,0,0,0,0,0,0,0,0,0,0,0,0,0,0,0,0,0,0,0,0,0,0,0,0,0,0,0,0,0,0,0,0,0,0,0,0,0,0,0,0,0,0,0,0,0,0,0,0,0,0,0,0,0,0,0,0,0,0,0,0,0,0,0,0,0,0],"sum_hessian":[2.31264E5,7.7149E4,1.54115E5,3.7873E4,3.9276E4,1.19635E5,3.448E4,2.1826E4,1.6047E4,2.0739E4,1.8537E4,6.3851E4,5.5784E4,1.7347E4,1.7133E4,1.1357E4,1.0469E4,5.566E3,1.0481E4,8.329E3,1.241E4,6.673E3,1.1864E4,3.211E4,3.1741E4,2.7596E4,2.8188E4,8.663E3,8.684E3,1.0032E4,7.101E3,1.894E3,9.463E3,2.104E3,8.365E3,4.449E3,1.117E3,7.745E3,2.736E3,4.681E3,3.648E3,3.534E3,8.876E3,1.907E3,4.766E3,1.778E3,1.0086E4,1.5786E4,1.6324E4,1.4739E4,1.7002E4,1.7681E4,9.915E3,1.8841E4,9.347E3,5.096E3,3.567E3,5.322E3,3.362E3,3.608E3,6.424E3,4.712E3,2.389E3,4.19E2,1.475E3,1.715E3,7.748E3,3.86E2,1.718E3,6.174E3,2.191E3,6.91E2,3.758E3,7.59E2,3.58E2,4.852E3,2.893E3,2.122E3,6.14E2,8.73E2,3.808E3,2.305E3,1.343E3,4.88E2,3.046E3,3.6E3,5.276E3,1.447E3,4.6E2,9.72E2,3.794E3,6.42E2,1.136E3,3.144E3,6.942E3,2.289E3,1.3497E4,2.092E3,1.4232E4,2.368E3,1.2371E4,2.308E3,1.4694E4,3.705E3,1.3976E4,7.243E3,2.672E3,4.242E3,1.4599E4,5.652E3,3.695E3,2.193E3,2.903E3,1.093E3,2.474E3,4.15E3,1.172E3,2.448E3,9.14E2,2.909E3,6.99E2,4.327E3,2.097E3,3.719E3,9.93E2,1.832E3,5.57E2],"tree_param":{"num_deleted":"0","num_feature":"12","num_nodes":"127","size_leaf_vector":"1"}},{"base_weights":[6.870657E-4,3.729018E0,-1.865704E0,1.3072973E0,7.457618E0,-3.4720855E0,4.4966963E-1,2.4100152E-1,3.63515E0,5.820183E0,9.543788E0,